{"learner":{"attributes":{"scikit_learn":"{\"_estimator_type\": \"regressor\"}"},"feature_names":["Energy_Estimated(%)","Distance_Traveled(km)","Avg_Temperature(C)","Air_Humidity(%)"],"feature_types":["float","float","float","float"],"gradient_booster":{"model":{"gbtree_model_param":{"num_parallel_tree":"1","num_trees":"300"},"iteration_indptr":[0,1,2,3,4,5,6,7,8,9,10,11,12,13,14,15,16,17,18,19,20,21,22,23,24,25,26,27,28,29,30,31,32,33,34,35,36,37,38,39,40,41,42,43,44,45,46,47,48,49,50,51,52,53,54,55,56,57,58,59,60,61,62,63,64,65,66,67,68,69,70,71,72,73,74,75,76,77,78,79,80,81,82,83,84,85,86,87,88,89,90,91,92,93,94,95,96,97,98,99,100,101,102,103,104,105,106,107,108,109,110,111,112,113,114,115,116,117,118,119,120,121,122,123,124,125,126,127,128,129,130,131,132,133,134,135,136,137,138,139,140,141,142,143,144,145,146,147,148,149,150,151,152,153,154,155,156,157,158,159,160,161,162,163,164,165,166,167,168,169,170,171,172,173,174,175,176,177,178,179,180,181,182,183,184,185,186,187,188,189,190,191,192,193,194,195,196,197,198,199,200,201,202,203,204,205,206,207,208,209,210,211,212,213,214,215,216,217,218,219,220,221,222,223,224,225,226,227,228,229,230,231,232,233,234,235,236,237,238,239,240,241,242,243,244,245,246,247,248,249,250,251,252,253,254,255,256,257,258,259,260,261,262,263,264,265,266,267,268,269,270,271,272,273,274,275,276,277,278,279,280,281,282,283,284,285,286,287,288,289,290,291,292,293,294,295,296,297,298,299,300],"tree_info":[0,0,0,0,0,0,0,0,0,0,0,0,0,0,0,0,0,0,0,0,0,0,0,0,0,0,0,0,0,0,0,0,0,0,0,0,0,0,0,0,0,0,0,0,0,0,0,0,0,0,0,0,0,0,0,0,0,0,0,0,0,0,0,0,0,0,0,0,0,0,0,0,0,0,0,0,0,0,0,0,0,0,0,0,0,0,0,0,0,0,0,0,0,0,0,0,0,0,0,0,0,0,0,0,0,0,0,0,0,0,0,0,0,0,0,0,0,0,0,0,0,0,0,0,0,0,0,0,0,0,0,0,0,0,0,0,0,0,0,0,0,0,0,0,0,0,0,0,0,0,0,0,0,0,0,0,0,0,0,0,0,0,0,0,0,0,0,0,0,0,0,0,0,0,0,0,0,0,0,0,0,0,0,0,0,0,0,0,0,0,0,0,0,0,0,0,0,0,0,0,0,0,0,0,0,0,0,0,0,0,0,0,0,0,0,0,0,0,0,0,0,0,0,0,0,0,0,0,0,0,0,0,0,0,0,0,0,0,0,0,0,0,0,0,0,0,0,0,0,0,0,0,0,0,0,0,0,0,0,0,0,0,0,0,0,0,0,0,0,0,0,0,0,0,0,0,0,0,0,0,0,0,0,0,0,0,0,0,0,0,0,0,0,0,0,0,0,0,0,0],"trees":[{"base_weights":[-8.77327E-2,-5.0610347E0,7.847957E0,-1.0924935E1,-1.5340917E0,4.5581255E0,1.1238866E1,-1.2256382E-1,-7.702127E-2,-5.407089E-3,-5.2267924E-2,2.328763E-2,5.591868E-2,7.864485E-2,1.5317376E-1],"categories":[],"categories_nodes":[],"categories_segments":[],"categories_sizes":[],"default_left":[0,0,0,0,0,0,0,0,0,0,0,0,0,0,0],"id":0,"left_children":[1,3,5,7,9,11,13,-1,-1,-1,-1,-1,-1,-1,-1],"loss_changes":[4.30211E3,1.36891E3,4.1730347E2,1.2874756E1,1.5490923E2,3.9983368E1,1.5478589E2,0E0,0E0,0E0,0E0,0E0,0E0,0E0,0E0],"parents":[2147483647,0,0,1,1,2,2,3,3,4,4,5,5,6,6],"right_children":[2,4,6,8,10,12,14,-1,-1,-1,-1,-1,-1,-1,-1],"split_conditions":[5.83905E1,4.472243E1,6.512322E1,4.0657646E1,7.681758E1,5.81E1,6.71E1,-1.2256382E-1,-7.702127E-2,-5.407089E-3,-5.2267924E-2,2.328763E-2,5.591868E-2,7.864485E-2,1.5317376E-1],"split_indices":[0,0,0,0,3,1,1,0,0,0,0,0,0,0,0],"split_type":[0,0,0,0,0,0,0,0,0,0,0,0,0,0,0],"sum_hessian":[1.07E2,6.6E1,4.1E1,2.4E1,4.2E1,2.2E1,1.9E1,1.5E1,9E0,3.4E1,8E0,8E0,1.4E1,1.2E1,7E0],"tree_param":{"num_deleted":"0","num_feature":"4","num_nodes":"15","size_leaf_vector":"1"}},{"base_weights":[7.403777E-2,-4.668645E0,7.940897E0,-1.0836283E1,-1.6148059E0,3.7457042E0,1.2357265E1,-1.383182E-1,-8.116838E-2,-3.808215E-2,3.946985E-3,1.6413951E-2,4.6952713E-2,7.747093E-2,1.5169303E-1],"categories":[],"categories_nodes":[],"categories_segments":[],"categories_sizes":[],"default_left":[0,0,0,0,0,0,0,0,0,0,0,0,0,0,0],"id":1,"left_children":[1,3,5,7,9,11,13,-1,-1,-1,-1,-1,-1,-1,-1],"loss_changes":[4.3650356E3,1.3574547E3,7.689243E2,8.323804E1,2.2188634E2,4.0249573E1,1.5472559E2,0E0,0E0,0E0,0E0,0E0,0E0,0E0,0E0],"parents":[2147483647,0,0,1,1,2,2,3,3,4,4,5,5,6,6],"right_children":[2,4,6,8,10,12,14,-1,-1,-1,-1,-1,-1,-1,-1],"split_conditions":[5.8222233E1,4.472243E1,6.512322E1,3.9158768E1,2.243388E1,5.53E1,6.5E1,-1.383182E-1,-8.116838E-2,-3.808215E-2,3.946985E-3,1.6413951E-2,4.6952713E-2,7.747093E-2,1.5169303E-1],"split_indices":[0,0,0,0,2,1,1,0,0,0,0,0,0,0,0],"split_type":[0,0,0,0,0,0,0,0,0,0,0,0,0,0,0],"sum_hessian":[1.15E2,7.2E1,4.3E1,2.3E1,4.9E1,2.3E1,2E1,9E0,1.4E1,2.3E1,2.6E1,8E0,1.5E1,9E0,1.1E1],"tree_param":{"num_deleted":"0","num_feature":"4","num_nodes":"15","size_leaf_vector":"1"}},{"base_weights":[2.2492044E-1,-4.784367E0,8.024858E0,-9.14681E0,-5.3451115E-1,3.731118E0,1.1596324E1,-1.1129239E-1,-5.6614228E-2,-2.8052347E-2,1.7659076E-2,4.457581E-2,1.9934177E-2,7.285995E-2,1.4940292E-1],"categories":[],"categories_nodes":[],"categories_segments":[],"categories_sizes":[],"default_left":[0,0,0,0,0,0,0,0,0,0,0,0,0,0,0],"id":2,"left_children":[1,3,5,7,9,11,13,-1,-1,-1,-1,-1,-1,-1,-1],"loss_changes":[4.2972563E3,1.2372742E3,6.1613525E2,1.6500732E2,1.877803E2,1.7624023E1,2.226582E2,0E0,0E0,0E0,0E0,0E0,0E0,0E0,0E0],"parents":[2147483647,0,0,1,1,2,2,3,3,4,4,5,5,6,6],"right_children":[2,4,6,8,10,12,14,-1,-1,-1,-1,-1,-1,-1,-1],"split_conditions":[5.9010624E1,4.7830112E1,6.512322E1,4.3887543E1,2.3271168E1,2.5172422E1,2.423225E1,-1.1129239E-1,-5.6614228E-2,-2.8052347E-2,1.7659076E-2,4.457581E-2,1.9934177E-2,7.285995E-2,1.4940292E-1],"split_indices":[0,0,0,0,2,2,2,0,0,0,0,0,0,0,0],"split_type":[0,0,0,0,0,0,0,0,0,0,0,0,0,0,0],"sum_hessian":[1.08E2,6.6E1,4.2E1,3.2E1,3.4E1,2E1,2.2E1,1.9E1,1.3E1,1.7E1,1.7E1,1.3E1,7E0,1.1E1,1.1E1],"tree_param":{"num_deleted":"0","num_feature":"4","num_nodes":"15","size_leaf_vector":"1"}},{"base_weights":[1.4825697E-1,-5.274577E0,7.495915E0,-1.0956939E1,-2.0174136E0,4.176409E0,1.1436478E1,-1.2835969E-1,-6.816563E-2,-5.0898142E-2,-3.495982E-3,2.1532238E-2,6.033961E-2,6.847886E-2,1.3380496E-1],"categories":[],"categories_nodes":[],"categories_segments":[],"categories_sizes":[],"default_left":[0,0,0,0,0,0,0,0,0,0,0,0,0,0,0],"id":3,"left_children":[1,3,5,7,9,11,13,-1,-1,-1,-1,-1,-1,-1,-1],"loss_changes":[4.2232764E3,1.1069064E3,5.408689E2,8.36604E1,2.0318849E2,8.472E1,8.677832E1,0E0,0E0,0E0,0E0,0E0,0E0,0E0,0E0],"parents":[2147483647,0,0,1,1,2,2,3,3,4,4,5,5,6,6],"right_children":[2,4,6,8,10,12,14,-1,-1,-1,-1,-1,-1,-1,-1],"split_conditions":[5.83905E1,4.457791E1,6.6532135E1,3.8829624E1,4.96E1,2.4530066E1,6.42E1,-1.2835969E-1,-6.816563E-2,-5.0898142E-2,-3.495982E-3,2.1532238E-2,6.033961E-2,6.847886E-2,1.3380496E-1],"split_indices":[0,0,0,0,1,2,1,0,0,0,0,0,0,0,0],"split_type":[0,0,0,0,0,0,0,0,0,0,0,0,0,0,0],"sum_hessian":[1.04E2,6E1,4.4E1,2.1E1,3.9E1,2.5E1,1.9E1,1.3E1,8E0,1.3E1,2.6E1,1.3E1,1.2E1,7E0,1.2E1],"tree_param":{"num_deleted":"0","num_feature":"4","num_nodes":"15","size_leaf_vector":"1"}},{"base_weights":[4.4683084E-1,-5.23211E0,7.4031386E0,-1.0340632E1,-1.9895445E0,3.6878498E0,1.0588652E1,-1.3054188E-1,-7.6613165E-2,-4.1212134E-2,-1.420988E-3,1.4577314E-3,5.254007E-2,7.166421E-2,1.3076824E-1],"categories":[],"categories_nodes":[],"categories_segments":[],"categories_sizes":[],"default_left":[0,0,0,0,0,0,0,0,0,0,0,0,0,0,0],"id":4,"left_children":[1,3,5,7,9,11,13,-1,-1,-1,-1,-1,-1,-1,-1],"loss_changes":[4.6607563E3,1.0561338E3,5.8821094E2,8.174951E1,1.6087819E2,1.434678E2,1.4470874E2,0E0,0E0,0E0,0E0,0E0,0E0,0E0,0E0],"parents":[2147483647,0,0,1,1,2,2,3,3,4,4,5,5,6,6],"right_children":[2,4,6,8,10,12,14,-1,-1,-1,-1,-1,-1,-1,-1],"split_conditions":[5.8222233E1,4.472243E1,6.512322E1,3.6105434E1,4.99E1,5.72E1,6.5E1,-1.3054188E-1,-7.6613165E-2,-4.1212134E-2,-1.420988E-3,1.4577314E-3,5.254007E-2,7.166421E-2,1.3076824E-1],"split_indices":[0,0,0,0,1,1,1,0,0,0,0,0,0,0,0],"split_type":[0,0,0,0,0,0,0,0,0,0,0,0,0,0,0],"sum_hessian":[1.16E2,6.4E1,5.2E1,2.4E1,4E1,2.5E1,2.7E1,1E1,1.4E1,1.8E1,2.2E1,8E0,1.7E1,1.3E1,1.4E1],"tree_param":{"num_deleted":"0","num_feature":"4","num_nodes":"15","size_leaf_vector":"1"}},{"base_weights":[-1.5058076E-1,-4.755796E0,7.005404E0,-1.0683773E-1,-1.8152505E0,3.6081495E0,1.0701913E1,-3.8881734E-2,2.477621E-3,1.034941E-2,4.694301E-2,7.303864E-2,1.4049186E-1],"categories":[],"categories_nodes":[],"categories_segments":[],"categories_sizes":[],"default_left":[0,0,0,0,0,0,0,0,0,0,0,0,0],"id":5,"left_children":[1,3,5,-1,7,9,11,-1,-1,-1,-1,-1,-1],"loss_changes":[3.9549434E3,1.2531046E3,5.5161084E2,0E0,2.1478668E2,6.780893E1,1.4761914E2,0E0,0E0,0E0,0E0,0E0,0E0],"parents":[2147483647,0,0,1,1,2,2,4,4,5,5,6,6],"right_children":[2,4,6,-1,8,10,12,-1,-1,-1,-1,-1,-1],"split_conditions":[5.83905E1,4.457791E1,6.512322E1,-1.0683773E-1,2.243388E1,5.72E1,6.71E1,-3.8881734E-2,2.477621E-3,1.034941E-2,4.694301E-2,7.303864E-2,1.4049186E-1],"split_indices":[0,0,0,0,2,1,1,0,0,0,0,0,0],"split_type":[0,0,0,0,0,0,0,0,0,0,0,0,0],"sum_hessian":[1.18E2,7.2E1,4.6E1,2.3E1,4.9E1,2.5E1,2.1E1,2.4E1,2.5E1,8E0,1.7E1,1.2E1,9E0],"tree_param":{"num_deleted":"0","num_feature":"4","num_nodes":"13","size_leaf_vector":"1"}},{"base_weights":[9.076503E-2,-4.9014444E0,7.3775754E0,-9.786725E0,-1.9907206E0,4.0757046E0,1.0516418E1,-1.11583285E-1,-7.4512795E-2,-4.463227E-2,-1.5354715E-3,1.3661794E-2,5.0020464E-2,6.487203E-2,1.3218859E-1],"categories":[],"categories_nodes":[],"categories_segments":[],"categories_sizes":[],"default_left":[0,0,0,0,0,0,0,0,0,0,0,0,0,0,0],"id":6,"left_children":[1,3,5,7,9,11,13,-1,-1,-1,-1,-1,-1,-1,-1],"loss_changes":[4.4741895E3,1.01855566E3,4.7534082E2,3.3452148E0,2.1280862E2,5.8424957E1,1.864646E2,0E0,0E0,0E0,0E0,0E0,0E0,0E0,0E0],"parents":[2147483647,0,0,1,1,2,2,3,3,4,4,5,5,6,6],"right_children":[2,4,6,8,10,12,14,-1,-1,-1,-1,-1,-1,-1,-1],"split_conditions":[5.83905E1,4.472243E1,6.512322E1,3.9158768E1,4.99E1,5.72E1,6.5E1,-1.11583285E-1,-7.4512795E-2,-4.463227E-2,-1.5354715E-3,1.3661794E-2,5.0020464E-2,6.487203E-2,1.3218859E-1],"split_indices":[0,0,0,0,1,1,1,0,0,0,0,0,0,0,0],"split_type":[0,0,0,0,0,0,0,0,0,0,0,0,0,0,0],"sum_hessian":[1.21E2,7.2E1,4.9E1,2.6E1,4.6E1,2.5E1,2.4E1,1.4E1,1.2E1,1.9E1,2.7E1,7E0,1.8E1,1.1E1,1.3E1],"tree_param":{"num_deleted":"0","num_feature":"4","num_nodes":"15","size_leaf_vector":"1"}},{"base_weights":[1.2512058E-1,-4.6049886E0,7.1673017E0,-1.053422E-1,-1.6679605E0,4.2778625E0,9.996374E0,-4.0100608E-2,6.4717424E-3,2.1280017E-2,5.3541593E-2,6.832436E-2,1.1904601E-1],"categories":[],"categories_nodes":[],"categories_segments":[],"categories_sizes":[],"default_left":[0,0,0,0,0,0,0,0,0,0,0,0,0],"id":7,"left_children":[1,3,5,-1,7,9,11,-1,-1,-1,-1,-1,-1],"loss_changes":[3.8969983E3,1.2014319E3,3.414353E2,0E0,2.6286453E2,4.6453552E1,5.752539E1,0E0,0E0,0E0,0E0,0E0,0E0],"parents":[2147483647,0,0,1,1,2,2,4,4,5,5,6,6],"right_children":[2,4,6,-1,8,10,12,-1,-1,-1,-1,-1,-1],"split_conditions":[5.9010624E1,4.472243E1,6.6532135E1,-1.053422E-1,2.243388E1,5.72E1,6.5E1,-4.0100608E-2,6.4717424E-3,2.1280017E-2,5.3541593E-2,6.832436E-2,1.1904601E-1],"split_indices":[0,0,0,0,2,1,1,0,0,0,0,0,0],"split_type":[0,0,0,0,0,0,0,0,0,0,0,0,0],"sum_hessian":[1.15E2,6.9E1,4.6E1,2.2E1,4.7E1,2.4E1,2.2E1,2.3E1,2.4E1,9E0,1.5E1,1E1,1.2E1],"tree_param":{"num_deleted":"0","num_feature":"4","num_nodes":"13","size_leaf_vector":"1"}},{"base_weights":[-4.2075694E-2,-4.1961355E0,7.0512476E0,-9.58438E-2,-1.3554119E0,3.9453619E0,8.69136E-2,-3.4109566E-2,9.378068E-3,2.7502261E-2,4.7967188E-2],"categories":[],"categories_nodes":[],"categories_segments":[],"categories_sizes":[],"default_left":[0,0,0,0,0,0,0,0,0,0,0],"id":8,"left_children":[1,3,5,-1,7,9,-1,-1,-1,-1,-1],"loss_changes":[3.2708577E3,1.0584652E3,1.745636E2,0E0,2.2474808E2,3.087738E0,0E0,0E0,0E0,0E0,0E0],"parents":[2147483647,0,0,1,1,2,2,4,4,5,5],"right_children":[2,4,6,-1,8,10,-1,-1,-1,-1,-1],"split_conditions":[5.83905E1,4.472243E1,6.3937824E1,-9.58438E-2,2.3271168E1,6.960498E1,8.69136E-2,-3.4109566E-2,9.378068E-3,2.7502261E-2,4.7967188E-2],"split_indices":[0,0,0,0,2,3,0,0,0,0,0],"split_type":[0,0,0,0,0,0,0,0,0,0,0],"sum_hessian":[1.09E2,6.9E1,4E1,2.3E1,4.6E1,1.5E1,2.5E1,2.4E1,2.2E1,8E0,7E0],"tree_param":{"num_deleted":"0","num_feature":"4","num_nodes":"11","size_leaf_vector":"1"}},{"base_weights":[3.3495313E-1,-4.49593E0,7.625544E0,-9.4722904E-2,-1.5854671E0,3.4289622E0,1.0883207E1,-3.7064724E-2,6.966892E-3,9.679625E-3,4.7661074E-2,6.7986816E-2,1.389861E-1],"categories":[],"categories_nodes":[],"categories_segments":[],"categories_sizes":[],"default_left":[0,0,0,0,0,0,0,0,0,0,0,0,0],"id":9,"left_children":[1,3,5,-1,7,9,11,-1,-1,-1,-1,-1,-1],"loss_changes":[4.1550234E3,1.0133115E3,6.052212E2,0E0,2.2524368E2,6.778232E1,2.2573657E2,0E0,0E0,0E0,0E0,0E0,0E0],"parents":[2147483647,0,0,1,1,2,2,4,4,5,5,6,6],"right_children":[2,4,6,-1,8,10,12,-1,-1,-1,-1,-1,-1],"split_conditions":[5.83905E1,4.472243E1,6.512322E1,-9.4722904E-2,2.3271168E1,5.72E1,6.5E1,-3.7064724E-2,6.966892E-3,9.679625E-3,4.7661074E-2,6.7986816E-2,1.389861E-1],"split_indices":[0,0,0,0,2,1,1,0,0,0,0,0,0],"split_type":[0,0,0,0,0,0,0,0,0,0,0,0,0],"sum_hessian":[1.16E2,7E1,4.6E1,2.5E1,4.5E1,2.1E1,2.5E1,2.3E1,2.2E1,8E0,1.3E1,1.2E1,1.3E1],"tree_param":{"num_deleted":"0","num_feature":"4","num_nodes":"13","size_leaf_vector":"1"}},{"base_weights":[-2.0720461E-1,-5.1365767E0,7.19117E0,-1.0146156E1,-2.084506E0,3.0125442E0,1.0611063E1,-1.3541985E-1,-8.003598E-2,-1.5801223E-3,-4.0041298E-2,2.0130158E-3,4.2298812E-2,6.229498E-2,1.3408911E-1],"categories":[],"categories_nodes":[],"categories_segments":[],"categories_sizes":[],"default_left":[0,0,0,0,0,0,0,0,0,0,0,0,0,0,0],"id":10,"left_children":[1,3,5,7,9,11,13,-1,-1,-1,-1,-1,-1,-1,-1],"loss_changes":[4.3767896E3,1.0797009E3,6.5397534E2,8.806079E1,1.6948192E2,7.785983E1,2.3520215E2,0E0,0E0,0E0,0E0,0E0,0E0,0E0,0E0],"parents":[2147483647,0,0,1,1,2,2,3,3,4,4,5,5,6,6],"right_children":[2,4,6,8,10,12,14,-1,-1,-1,-1,-1,-1,-1,-1],"split_conditions":[5.83905E1,4.472243E1,6.512322E1,3.6105434E1,6.903868E1,5.72E1,6.5E1,-1.3541985E-1,-8.003598E-2,-1.5801223E-3,-4.0041298E-2,2.0130158E-3,4.2298812E-2,6.229498E-2,1.3408911E-1],"split_indices":[0,0,0,0,3,1,1,0,0,0,0,0,0,0,0],"split_type":[0,0,0,0,0,0,0,0,0,0,0,0,0,0,0],"sum_hessian":[1.18E2,7.1E1,4.7E1,2.6E1,4.5E1,2.2E1,2.5E1,8E0,1.8E1,2.3E1,2.2E1,7E0,1.5E1,1.1E1,1.4E1],"tree_param":{"num_deleted":"0","num_feature":"4","num_nodes":"15","size_leaf_vector":"1"}},{"base_weights":[-3.2328535E-2,-5.17156E0,7.084152E0,-1.0040983E1,-1.6540192E0,3.5965166E0,1.043346E1,-1.1570887E-1,-7.466029E-2,-3.456523E-2,2.2366715E-3,7.0434045E-3,4.5735613E-2,6.834616E-2,1.3506564E-1],"categories":[],"categories_nodes":[],"categories_segments":[],"categories_sizes":[],"default_left":[0,0,0,0,0,0,0,0,0,0,0,0,0,0,0],"id":11,"left_children":[1,3,5,7,9,11,13,-1,-1,-1,-1,-1,-1,-1,-1],"loss_changes":[4.535145E3,1.2166362E3,5.6989624E2,3.1794434E1,1.4630817E2,7.307483E1,1.952378E2,0E0,0E0,0E0,0E0,0E0,0E0,0E0,0E0],"parents":[2147483647,0,0,1,1,2,2,3,3,4,4,5,5,6,6],"right_children":[2,4,6,8,10,12,14,-1,-1,-1,-1,-1,-1,-1,-1],"split_conditions":[5.83905E1,4.472243E1,6.512322E1,3.9158768E1,5.06E1,5.53E1,2.423225E1,-1.1570887E-1,-7.466029E-2,-3.456523E-2,2.2366715E-3,7.0434045E-3,4.5735613E-2,6.834616E-2,1.3506564E-1],"split_indices":[0,0,0,0,1,1,2,0,0,0,0,0,0,0,0],"split_type":[0,0,0,0,0,0,0,0,0,0,0,0,0,0,0],"sum_hessian":[1.22E2,7.1E1,5.1E1,2.9E1,4.2E1,2.6E1,2.5E1,1.6E1,1.3E1,2.1E1,2.1E1,7E0,1.9E1,1.3E1,1.2E1],"tree_param":{"num_deleted":"0","num_feature":"4","num_nodes":"15","size_leaf_vector":"1"}},{"base_weights":[3.2062875E-3,-4.313593E0,7.197795E0,-8.471794E0,-1.165797E0,4.7995234E0,1.2178592E-1,-9.615333E-2,-5.223183E-2,-3.1179693E-2,1.501866E-2,9.188924E-3,5.9406333E-2],"categories":[],"categories_nodes":[],"categories_segments":[],"categories_sizes":[],"default_left":[0,0,0,0,0,0,0,0,0,0,0,0,0],"id":12,"left_children":[1,3,5,7,9,11,-1,-1,-1,-1,-1,-1,-1],"loss_changes":[3.4784412E3,9.063655E2,4.4325146E2,6.1224854E1,2.1820004E2,1.2738794E2,0E0,0E0,0E0,0E0,0E0,0E0,0E0],"parents":[2147483647,0,0,1,1,2,2,3,3,4,4,5,5],"right_children":[2,4,6,8,10,12,-1,-1,-1,-1,-1,-1,-1],"split_conditions":[5.83905E1,4.7245125E1,7.098692E1,4.3887543E1,5.37E1,5.72E1,1.2178592E-1,-9.615333E-2,-5.223183E-2,-3.1179693E-2,1.501866E-2,9.188924E-3,5.9406333E-2],"split_indices":[0,0,0,0,1,1,0,0,0,0,0,0,0],"split_type":[0,0,0,0,0,0,0,0,0,0,0,0,0],"sum_hessian":[1.1E2,6.9E1,4.1E1,2.9E1,4E1,2.9E1,1.2E1,2E1,9E0,2.3E1,1.7E1,7E0,2.2E1],"tree_param":{"num_deleted":"0","num_feature":"4","num_nodes":"13","size_leaf_vector":"1"}},{"base_weights":[-1.3775377E-1,-4.6550193E0,7.3599315E0,-9.657358E0,-1.8484396E0,3.8773973E0,1.0100485E1,-1.0820789E-1,-7.0871525E-2,-3.4832757E-2,6.144945E-3,4.8762534E-2,2.2910297E-2,6.499047E-2,1.3160335E-1],"categories":[],"categories_nodes":[],"categories_segments":[],"categories_sizes":[],"default_left":[0,0,0,0,0,0,0,0,0,0,0,0,0,0,0],"id":13,"left_children":[1,3,5,7,9,11,13,-1,-1,-1,-1,-1,-1,-1,-1],"loss_changes":[3.9630688E3,1.0070298E3,3.8077563E2,1.0581055E0,1.9541211E2,2.2103943E1,1.7894702E2,0E0,0E0,0E0,0E0,0E0,0E0,0E0,0E0],"parents":[2147483647,0,0,1,1,2,2,3,3,4,4,5,5,6,6],"right_children":[2,4,6,8,10,12,14,-1,-1,-1,-1,-1,-1,-1,-1],"split_conditions":[5.9010624E1,4.472243E1,6.512322E1,4.0657646E1,5.37E1,6.17E1,2.423225E1,-1.0820789E-1,-7.0871525E-2,-3.4832757E-2,6.144945E-3,4.8762534E-2,2.2910297E-2,6.499047E-2,1.3160335E-1],"split_indices":[0,0,0,0,1,1,2,0,0,0,0,0,0,0,0],"split_type":[0,0,0,0,0,0,0,0,0,0,0,0,0,0,0],"sum_hessian":[1.15E2,7.2E1,4.3E1,2.5E1,4.7E1,2E1,2.3E1,1.5E1,1E1,2.8E1,1.9E1,1.1E1,9E0,1.2E1,1.1E1],"tree_param":{"num_deleted":"0","num_feature":"4","num_nodes":"15","size_leaf_vector":"1"}},{"base_weights":[9.6687704E-1,-7.8691235E0,4.321462E0,-1.0820848E1,-3.8024454E0,1.8191144E0,9.833656E0,-1.3168086E-1,-7.626248E-2,-9.376945E-3,-6.1918907E-2,-1.6701829E-2,2.941789E-2,6.2591046E-2,1.24504775E-1],"categories":[],"categories_nodes":[],"categories_segments":[],"categories_sizes":[],"default_left":[0,0,0,0,0,0,0,0,0,0,0,0,0,0,0],"id":14,"left_children":[1,3,5,7,9,11,13,-1,-1,-1,-1,-1,-1,-1,-1],"loss_changes":[3.4427344E3,3.429734E2,1.1407592E3,3.454956E1,9.68714E1,2.3603664E2,1.6527441E2,0E0,0E0,0E0,0E0,0E0,0E0,0E0,0E0],"parents":[2147483647,0,0,1,1,2,2,3,3,4,4,5,5,6,6],"right_children":[2,4,6,8,10,12,14,-1,-1,-1,-1,-1,-1,-1,-1],"split_conditions":[4.7909267E1,4.3887543E1,6.512322E1,3.98E1,6.842527E1,5.06E1,6.5E1,-1.3168086E-1,-7.626248E-2,-9.376945E-3,-6.1918907E-2,-1.6701829E-2,2.941789E-2,6.2591046E-2,1.24504775E-1],"split_indices":[0,0,0,1,3,1,1,0,0,0,0,0,0,0,0],"split_type":[0,0,0,0,0,0,0,0,0,0,0,0,0,0,0],"sum_hessian":[1.14E2,3.1E1,8.3E1,1.7E1,1.4E1,5.8E1,2.5E1,8E0,9E0,7E0,7E0,1.4E1,4.4E1,1.2E1,1.3E1],"tree_param":{"num_deleted":"0","num_feature":"4","num_nodes":"15","size_leaf_vector":"1"}},{"base_weights":[1.4188597E-1,-4.4368014E0,7.3054423E0,-9.288554E0,-1.8174137E0,3.452675E0,1.1008094E1,-1.1430166E-1,-6.7894176E-2,-4.091307E-2,-3.1670076E-3,1.4357855E-2,4.3713834E-2,7.28779E-2,1.3811056E-1],"categories":[],"categories_nodes":[],"categories_segments":[],"categories_sizes":[],"default_left":[0,0,0,0,0,0,0,0,0,0,0,0,0,0,0],"id":15,"left_children":[1,3,5,7,9,11,13,-1,-1,-1,-1,-1,-1,-1,-1],"loss_changes":[3.869976E3,8.981395E2,6.182036E2,5.620044E1,1.625024E2,3.819403E1,1.3918872E2,0E0,0E0,0E0,0E0,0E0,0E0,0E0,0E0],"parents":[2147483647,0,0,1,1,2,2,3,3,4,4,5,5,6,6],"right_children":[2,4,6,8,10,12,14,-1,-1,-1,-1,-1,-1,-1,-1],"split_conditions":[5.9010624E1,4.472243E1,6.488336E1,3.8485043E1,4.99E1,5.72E1,2.4058008E1,-1.1430166E-1,-6.7894176E-2,-4.091307E-2,-3.1670076E-3,1.4357855E-2,4.3713834E-2,7.28779E-2,1.3811056E-1],"split_indices":[0,0,0,0,1,1,2,0,0,0,0,0,0,0,0],"split_type":[0,0,0,0,0,0,0,0,0,0,0,0,0,0,0],"sum_hessian":[1.16E2,7.1E1,4.5E1,2.4E1,4.7E1,2.3E1,2.2E1,1.1E1,1.3E1,1.8E1,2.9E1,8E0,1.5E1,1.1E1,1.1E1],"tree_param":{"num_deleted":"0","num_feature":"4","num_nodes":"15","size_leaf_vector":"1"}},{"base_weights":[-2.9875344E-1,-4.1977463E0,7.7123046E0,-9.7647E0,-1.2264869E0,4.0167347E-2,9.70069E0,-1.24619536E-1,-7.723742E-2,3.4021568E-3,-3.2166865E-2,5.6576364E-2,1.1749346E-1],"categories":[],"categories_nodes":[],"categories_segments":[],"categories_sizes":[],"default_left":[0,0,0,0,0,0,0,0,0,0,0,0,0],"id":16,"left_children":[1,3,5,7,9,-1,11,-1,-1,-1,-1,-1,-1],"loss_changes":[3.6244062E3,1.278211E3,2.4026709E2,5.238159E1,1.6323303E2,0E0,1.3231445E2,0E0,0E0,0E0,0E0,0E0,0E0],"parents":[2147483647,0,0,1,1,2,2,3,3,4,4,6,6],"right_children":[2,4,6,8,10,-1,12,-1,-1,-1,-1,-1,-1],"split_conditions":[6.012044E1,4.472243E1,6.512322E1,3.7764927E1,6.903868E1,4.0167347E-2,6.5E1,-1.24619536E-1,-7.723742E-2,3.4021568E-3,-3.2166865E-2,5.6576364E-2,1.1749346E-1],"split_indices":[0,0,0,0,3,0,1,0,0,0,0,0,0],"split_type":[0,0,0,0,0,0,0,0,0,0,0,0,0],"sum_hessian":[1.14E2,7.7E1,3.7E1,2.6E1,5.1E1,1.4E1,2.3E1,9E0,1.7E1,2.9E1,2.2E1,9E0,1.4E1],"tree_param":{"num_deleted":"0","num_feature":"4","num_nodes":"13","size_leaf_vector":"1"}},{"base_weights":[2.3521663E-1,-3.8845665E0,8.353811E0,-9.188596E0,-8.0219E-1,6.6384277E0,1.2762356E-1,-1.1538067E-1,-6.999047E-2,1.0359529E-2,-3.2435738E-2,4.6225596E-2,7.5015455E-2],"categories":[],"categories_nodes":[],"categories_segments":[],"categories_sizes":[],"default_left":[0,0,0,0,0,0,0,0,0,0,0,0,0],"id":17,"left_children":[1,3,5,7,9,11,-1,-1,-1,-1,-1,-1,-1],"loss_changes":[3.577817E3,1.153409E3,1.8752246E2,5.299585E1,2.0979033E2,1.404187E1,0E0,0E0,0E0,0E0,0E0,0E0,0E0],"parents":[2147483647,0,0,1,1,2,2,3,3,4,4,5,5],"right_children":[2,4,6,8,10,12,-1,-1,-1,-1,-1,-1,-1],"split_conditions":[6.1214973E1,4.7245125E1,7.562779E1,3.8485043E1,6.903868E1,6.488336E1,1.2762356E-1,-1.1538067E-1,-6.999047E-2,1.0359529E-2,-3.2435738E-2,4.6225596E-2,7.5015455E-2],"split_indices":[0,0,0,0,3,0,0,0,0,0,0,0,0],"split_type":[0,0,0,0,0,0,0,0,0,0,0,0,0],"sum_hessian":[1.05E2,7E1,3.5E1,2.5E1,4.5E1,2.7E1,8E0,1E1,1.5E1,2.6E1,1.9E1,1E1,1.7E1],"tree_param":{"num_deleted":"0","num_feature":"4","num_nodes":"13","size_leaf_vector":"1"}},{"base_weights":[-9.896639E-1,-4.8413615E0,5.9863186E0,-9.46791E0,-1.8193772E0,2.8808408E0,8.806733E0,-1.0852643E-1,-6.9288045E-2,-4.028469E-2,-3.8547935E-3,5.4350407E-3,4.2773936E-2,5.8373317E-2,9.874482E-2],"categories":[],"categories_nodes":[],"categories_segments":[],"categories_sizes":[],"default_left":[0,0,0,0,0,0,0,0,0,0,0,0,0,0,0],"id":18,"left_children":[1,3,5,7,9,11,13,-1,-1,-1,-1,-1,-1,-1,-1],"loss_changes":[3.0920906E3,1.0173948E3,3.337373E2,2.6767578E1,1.4415727E2,6.622374E1,8.941528E0,0E0,0E0,0E0,0E0,0E0,0E0,0E0,0E0],"parents":[2147483647,0,0,1,1,2,2,3,3,4,4,5,5,6,6],"right_children":[2,4,6,8,10,12,14,-1,-1,-1,-1,-1,-1,-1,-1],"split_conditions":[5.83905E1,4.472243E1,6.3937824E1,3.9158768E1,4.99E1,5.72E1,6.653278E1,-1.0852643E-1,-6.9288045E-2,-4.028469E-2,-3.8547935E-3,5.4350407E-3,4.2773936E-2,5.8373317E-2,9.874482E-2],"split_indices":[0,0,0,0,1,1,0,0,0,0,0,0,0,0,0],"split_type":[0,0,0,0,0,0,0,0,0,0,0,0,0,0,0],"sum_hessian":[1.13E2,7.3E1,4E1,2.8E1,4.5E1,2E1,2E1,1.6E1,1.2E1,1.7E1,2.8E1,8E0,1.2E1,7E0,1.3E1],"tree_param":{"num_deleted":"0","num_feature":"4","num_nodes":"15","size_leaf_vector":"1"}},{"base_weights":[3.603949E-1,-3.8516443E0,6.579053E0,-9.347164E0,-1.5299698E0,4.0965776E0,9.891171E0,-1.14450894E-1,-7.337122E-2,-3.639432E-2,1.8210642E-3,1.2191849E-2,5.1865757E-2,6.205482E-2,1.2587744E-1],"categories":[],"categories_nodes":[],"categories_segments":[],"categories_sizes":[],"default_left":[0,0,0,0,0,0,0,0,0,0,0,0,0,0,0],"id":19,"left_children":[1,3,5,7,9,11,13,-1,-1,-1,-1,-1,-1,-1,-1],"loss_changes":[2.9851753E3,8.532981E2,3.3770374E2,3.6450195E-1,1.7762918E2,8.1494446E1,1.1072278E2,0E0,0E0,0E0,0E0,0E0,0E0,0E0,0E0],"parents":[2147483647,0,0,1,1,2,2,3,3,4,4,5,5,6,6],"right_children":[2,4,6,8,10,12,14,-1,-1,-1,-1,-1,-1,-1,-1],"split_conditions":[5.8222233E1,4.472243E1,6.694645E1,3.8485043E1,4.99E1,5.72E1,6.83E1,-1.14450894E-1,-7.337122E-2,-3.639432E-2,1.8210642E-3,1.2191849E-2,5.1865757E-2,6.205482E-2,1.2587744E-1],"split_indices":[0,0,0,0,1,1,1,0,0,0,0,0,0,0,0],"split_type":[0,0,0,0,0,0,0,0,0,0,0,0,0,0,0],"sum_hessian":[1.12E2,6.7E1,4.5E1,1.9E1,4.8E1,2.7E1,1.8E1,7E0,1.2E1,2.1E1,2.7E1,8E0,1.9E1,9E0,9E0],"tree_param":{"num_deleted":"0","num_feature":"4","num_nodes":"15","size_leaf_vector":"1"}},{"base_weights":[1.173956E-2,-4.3269477E0,6.1041145E0,-9.832683E-2,-2.0574493E0,2.7766192E0,9.455561E0,-4.0417455E-2,4.71344E-3,8.745361E-3,3.7918825E-2,6.42905E-2,1.1694108E-1],"categories":[],"categories_nodes":[],"categories_segments":[],"categories_sizes":[],"default_left":[0,0,0,0,0,0,0,0,0,0,0,0,0],"id":20,"left_children":[1,3,5,-1,7,9,11,-1,-1,-1,-1,-1,-1],"loss_changes":[2.9868982E3,8.044569E2,4.978861E2,0E0,2.4276305E2,4.496173E1,8.064258E1,0E0,0E0,0E0,0E0,0E0,0E0],"parents":[2147483647,0,0,1,1,2,2,4,4,5,5,6,6],"right_children":[2,4,6,-1,8,10,12,-1,-1,-1,-1,-1,-1],"split_conditions":[5.83905E1,4.3887543E1,6.512322E1,-9.832683E-2,2.2489416E1,5.72E1,2.423225E1,-4.0417455E-2,4.71344E-3,8.745361E-3,3.7918825E-2,6.42905E-2,1.1694108E-1],"split_indices":[0,0,0,0,2,1,2,0,0,0,0,0,0],"split_type":[0,0,0,0,0,0,0,0,0,0,0,0,0],"sum_hessian":[1.11E2,6.5E1,4.6E1,1.8E1,4.7E1,2.4E1,2.2E1,2.6E1,2.1E1,9E0,1.5E1,1.1E1,1.1E1],"tree_param":{"num_deleted":"0","num_feature":"4","num_nodes":"13","size_leaf_vector":"1"}},{"base_weights":[-1.2846728E-1,-3.9907908E0,7.4014063E0,-9.012309E0,-1.3525501E0,3.4173384E-2,9.262004E0,-1.07149735E-1,-6.787528E-2,-2.6350178E-2,9.460804E-3,5.723692E-2,1.1475186E-1],"categories":[],"categories_nodes":[],"categories_segments":[],"categories_sizes":[],"default_left":[0,0,0,0,0,0,0,0,0,0,0,0,0],"id":21,"left_children":[1,3,5,7,9,-1,11,-1,-1,-1,-1,-1,-1],"loss_changes":[3.3449775E3,9.946565E2,2.574458E2,2.5761475E1,1.5283685E2,0E0,1.3792383E2,0E0,0E0,0E0,0E0,0E0,0E0],"parents":[2147483647,0,0,1,1,2,2,3,3,4,4,6,6],"right_children":[2,4,6,8,10,-1,12,-1,-1,-1,-1,-1,-1],"split_conditions":[5.9746582E1,4.472243E1,6.512322E1,3.8829624E1,5.52E1,3.4173384E-2,6.5E1,-1.07149735E-1,-6.787528E-2,-2.6350178E-2,9.460804E-3,5.723692E-2,1.1475186E-1],"split_indices":[0,0,0,0,1,0,1,0,0,0,0,0,0],"split_type":[0,0,0,0,0,0,0,0,0,0,0,0,0],"sum_hessian":[1.13E2,7.5E1,3.8E1,2.5E1,5E1,1.3E1,2.5E1,1.2E1,1.3E1,3.2E1,1.8E1,1.1E1,1.4E1],"tree_param":{"num_deleted":"0","num_feature":"4","num_nodes":"13","size_leaf_vector":"1"}},{"base_weights":[1.1301934E-1,-4.6555347E0,6.848737E0,-9.160435E0,-1.4173852E0,4.0049953E0,1.1049834E1,-1.03097655E-1,-6.864623E-2,-3.848722E-2,1.0848207E-2,1.9947434E-2,5.748247E-2,1.357852E-1,7.012423E-2],"categories":[],"categories_nodes":[],"categories_segments":[],"categories_sizes":[],"default_left":[0,0,0,0,0,0,0,0,0,0,0,0,0,0,0],"id":22,"left_children":[1,3,5,7,9,11,13,-1,-1,-1,-1,-1,-1,-1,-1],"loss_changes":[3.5650442E3,9.352062E2,5.0530005E2,4.7094727E-1,2.4143967E2,9.0160614E1,8.8549805E1,0E0,0E0,0E0,0E0,0E0,0E0,0E0,0E0],"parents":[2147483647,0,0,1,1,2,2,3,3,4,4,5,5,6,6],"right_children":[2,4,6,8,10,12,14,-1,-1,-1,-1,-1,-1,-1,-1],"split_conditions":[5.83905E1,4.472243E1,6.694645E1,4.0657646E1,2.243388E1,2.4058857E1,6.363165E1,-1.03097655E-1,-6.864623E-2,-3.848722E-2,1.0848207E-2,1.9947434E-2,5.748247E-2,1.357852E-1,7.012423E-2],"split_indices":[0,0,0,0,2,2,3,0,0,0,0,0,0,0,0],"split_type":[0,0,0,0,0,0,0,0,0,0,0,0,0,0,0],"sum_hessian":[1.09E2,6.4E1,4.5E1,2.6E1,3.8E1,2.8E1,1.7E1,1.5E1,1.1E1,1.9E1,1.9E1,1.4E1,1.4E1,9E0,8E0],"tree_param":{"num_deleted":"0","num_feature":"4","num_nodes":"15","size_leaf_vector":"1"}},{"base_weights":[2.1578668E-1,-3.7240713E0,5.874837E0,-8.715454E0,-1.3587694E0,2.9731202E0,8.8996105E0,-1.0826701E-1,-5.6199607E-2,-2.8422011E-2,8.601452E-3,8.175178E-3,4.0662322E-2,6.7988105E-2,1.19887576E-1],"categories":[],"categories_nodes":[],"categories_segments":[],"categories_sizes":[],"default_left":[0,0,0,0,0,0,0,0,0,0,0,0,0,0,0],"id":23,"left_children":[1,3,5,7,9,11,13,-1,-1,-1,-1,-1,-1,-1,-1],"loss_changes":[2.6081975E3,8.027803E2,3.94838E2,8.293213E1,1.6044191E2,5.7939987E1,6.7753296E1,0E0,0E0,0E0,0E0,0E0,0E0,0E0,0E0],"parents":[2147483647,0,0,1,1,2,2,3,3,4,4,5,5,6,6],"right_children":[2,4,6,8,10,12,14,-1,-1,-1,-1,-1,-1,-1,-1],"split_conditions":[5.83905E1,4.472243E1,6.512322E1,3.8485043E1,5.37E1,5.72E1,6.85E1,-1.0826701E-1,-5.6199607E-2,-2.8422011E-2,8.601452E-3,8.175178E-3,4.0662322E-2,6.7988105E-2,1.19887576E-1],"split_indices":[0,0,0,0,1,1,1,0,0,0,0,0,0,0,0],"split_type":[0,0,0,0,0,0,0,0,0,0,0,0,0,0,0],"sum_hessian":[1.15E2,6.8E1,4.7E1,2.1E1,4.7E1,2.5E1,2.2E1,1.1E1,1E1,2.8E1,1.9E1,9E0,1.6E1,1.5E1,7E0],"tree_param":{"num_deleted":"0","num_feature":"4","num_nodes":"15","size_leaf_vector":"1"}},{"base_weights":[-1.8792076E-1,-4.2230835E0,6.1320715E0,-8.534895E0,-1.7479736E0,4.2533674E0,1.2470069E-1,-1.0760788E-1,-6.1851867E-2,-3.7012886E-2,-2.9032065E-3,2.324514E-2,5.958359E-2],"categories":[],"categories_nodes":[],"categories_segments":[],"categories_sizes":[],"default_left":[0,0,0,0,0,0,0,0,0,0,0,0,0],"id":24,"left_children":[1,3,5,7,9,11,-1,-1,-1,-1,-1,-1,-1],"loss_changes":[3.0096533E3,7.534802E2,4.9469238E2,6.942761E1,1.3274646E2,1.0783087E2,0E0,0E0,0E0,0E0,0E0,0E0,0E0],"parents":[2147483647,0,0,1,1,2,2,3,3,4,4,5,5],"right_children":[2,4,6,8,10,12,-1,-1,-1,-1,-1,-1,-1],"split_conditions":[5.83905E1,4.472243E1,6.83E1,3.8485043E1,5.06E1,6.3937824E1,1.2470069E-1,-1.0760788E-1,-6.1851867E-2,-3.7012886E-2,-2.9032065E-3,2.324514E-2,5.958359E-2],"split_indices":[0,0,1,0,1,0,0,0,0,0,0,0,0],"split_type":[0,0,0,0,0,0,0,0,0,0,0,0,0],"sum_hessian":[1.16E2,7.1E1,4.5E1,2.5E1,4.6E1,3.6E1,9E0,1.1E1,1.4E1,1.9E1,2.7E1,1.8E1,1.8E1],"tree_param":{"num_deleted":"0","num_feature":"4","num_nodes":"13","size_leaf_vector":"1"}},{"base_weights":[-4.2143488E-1,-4.4006414E0,6.599582E0,-8.343938E0,-1.1975598E0,3.333149E0,1.0026002E1,-1.1679864E-1,-6.385715E-2,-3.519982E-2,8.740056E-3,4.318396E-2,2.2430822E-2,5.384342E-2,1.21111766E-1],"categories":[],"categories_nodes":[],"categories_segments":[],"categories_sizes":[],"default_left":[0,0,0,0,0,0,0,0,0,0,0,0,0,0,0],"id":25,"left_children":[1,3,5,7,9,11,13,-1,-1,-1,-1,-1,-1,-1,-1],"loss_changes":[3.2419214E3,9.246798E2,4.366532E2,1.4098755E2,2.051406E2,1.5015137E1,1.2836255E2,0E0,0E0,0E0,0E0,0E0,0E0,0E0,0E0],"parents":[2147483647,0,0,1,1,2,2,3,3,4,4,5,5,6,6],"right_children":[2,4,6,8,10,12,14,-1,-1,-1,-1,-1,-1,-1,-1],"split_conditions":[5.9010624E1,4.7245125E1,6.653278E1,3.7764927E1,2.3271168E1,6.0707245E1,6.42E1,-1.1679864E-1,-6.385715E-2,-3.519982E-2,8.740056E-3,4.318396E-2,2.2430822E-2,5.384342E-2,1.21111766E-1],"split_indices":[0,0,0,0,2,3,1,0,0,0,0,0,0,0,0],"split_type":[0,0,0,0,0,0,0,0,0,0,0,0,0,0,0],"sum_hessian":[1.14E2,7.3E1,4.1E1,3.2E1,4.1E1,2.2E1,1.9E1,1E1,2.2E1,1.9E1,2.2E1,1E1,1.2E1,7E0,1.2E1],"tree_param":{"num_deleted":"0","num_feature":"4","num_nodes":"15","size_leaf_vector":"1"}},{"base_weights":[2.925706E-1,-3.5926816E0,5.6286974E0,-7.25393E0,-8.719728E-1,3.117047E0,8.2232275E0,-8.0633804E-2,-4.990583E-2,-2.5031349E-2,1.3861862E-2,1.2582215E-2,3.8732905E-2,5.441717E-2,1.0319469E-1],"categories":[],"categories_nodes":[],"categories_segments":[],"categories_sizes":[],"default_left":[0,0,0,0,0,0,0,0,0,0,0,0,0,0,0],"id":26,"left_children":[1,3,5,7,9,11,13,-1,-1,-1,-1,-1,-1,-1,-1],"loss_changes":[2.3629602E3,6.5111334E2,2.8716248E2,1.1056885E1,1.4712334E2,3.16754E1,7.7950806E1,0E0,0E0,0E0,0E0,0E0,0E0,0E0,0E0],"parents":[2147483647,0,0,1,1,2,2,3,3,4,4,5,5,6,6],"right_children":[2,4,6,8,10,12,14,-1,-1,-1,-1,-1,-1,-1,-1],"split_conditions":[5.83905E1,4.7245125E1,6.512322E1,4.3887543E1,5.37E1,5.72E1,6.5E1,-8.0633804E-2,-4.990583E-2,-2.5031349E-2,1.3861862E-2,1.2582215E-2,3.8732905E-2,5.441717E-2,1.0319469E-1],"split_indices":[0,0,0,0,1,1,1,0,0,0,0,0,0,0,0],"split_type":[0,0,0,0,0,0,0,0,0,0,0,0,0,0,0],"sum_hessian":[1.12E2,6.5E1,4.7E1,2.7E1,3.8E1,2.5E1,2.2E1,1.8E1,9E0,2.2E1,1.6E1,8E0,1.7E1,1.1E1,1.1E1],"tree_param":{"num_deleted":"0","num_feature":"4","num_nodes":"15","size_leaf_vector":"1"}},{"base_weights":[-4.0489176E-1,-3.7176175E0,7.2366853E0,-8.805748E0,-1.4816061E0,4.4304743E0,1.0308774E1,-1.0936059E-1,-5.9416234E-2,-3.184939E-2,3.396875E-3,5.464946E-2,2.9529545E-2,6.577275E-2,1.2751676E-1],"categories":[],"categories_nodes":[],"categories_segments":[],"categories_sizes":[],"default_left":[0,0,0,0,0,0,0,0,0,0,0,0,0,0,0],"id":27,"left_children":[1,3,5,7,9,11,13,-1,-1,-1,-1,-1,-1,-1,-1],"loss_changes":[2.7608635E3,8.5161414E2,2.38818E2,7.535608E1,1.6860445E2,1.2902893E1,5.2864014E1,0E0,0E0,0E0,0E0,0E0,0E0,0E0,0E0],"parents":[2147483647,0,0,1,1,2,2,3,3,4,4,5,5,6,6],"right_children":[2,4,6,8,10,12,14,-1,-1,-1,-1,-1,-1,-1,-1],"split_conditions":[6.012044E1,4.472243E1,6.809879E1,3.9158768E1,2.243388E1,6.593671E1,2.2078238E1,-1.0936059E-1,-5.9416234E-2,-3.184939E-2,3.396875E-3,5.464946E-2,2.9529545E-2,6.577275E-2,1.2751676E-1],"split_indices":[0,0,0,0,2,3,2,0,0,0,0,0,0,0,0],"split_type":[0,0,0,0,0,0,0,0,0,0,0,0,0,0,0],"sum_hessian":[1.07E2,7.5E1,3.2E1,2.2E1,5.3E1,1.8E1,1.4E1,1.1E1,1.1E1,2.7E1,2.6E1,9E0,9E0,7E0,7E0],"tree_param":{"num_deleted":"0","num_feature":"4","num_nodes":"15","size_leaf_vector":"1"}},{"base_weights":[3.8334826E-1,-4.1429014E0,6.5644784E0,-9.204245E0,-1.6321958E0,4.1348524E0,9.880693E0,-1.18910894E-1,-7.157645E-2,-2.7918953E-2,7.167344E-3,8.240566E-3,5.1066574E-2,5.20119E-2,1.2000334E-1],"categories":[],"categories_nodes":[],"categories_segments":[],"categories_sizes":[],"default_left":[0,0,0,0,0,0,0,0,0,0,0,0,0,0,0],"id":28,"left_children":[1,3,5,7,9,11,13,-1,-1,-1,-1,-1,-1,-1,-1],"loss_changes":[3.24459E3,8.363823E2,3.5394556E2,3.5863525E1,1.27307526E2,9.231525E1,1.3596155E2,0E0,0E0,0E0,0E0,0E0,0E0,0E0,0E0],"parents":[2147483647,0,0,1,1,2,2,3,3,4,4,5,5,6,6],"right_children":[2,4,6,8,10,12,14,-1,-1,-1,-1,-1,-1,-1,-1],"split_conditions":[5.83905E1,4.3887543E1,6.809879E1,3.6105434E1,5.37E1,5.52E1,6.42E1,-1.18910894E-1,-7.157645E-2,-2.7918953E-2,7.167344E-3,8.240566E-3,5.1066574E-2,5.20119E-2,1.2000334E-1],"split_indices":[0,0,0,0,1,1,1,0,0,0,0,0,0,0,0],"split_type":[0,0,0,0,0,0,0,0,0,0,0,0,0,0,0],"sum_hessian":[1.14E2,6.6E1,4.8E1,2.1E1,4.5E1,2.9E1,1.9E1,7E0,1.4E1,3E1,1.5E1,7E0,2.2E1,7E0,1.2E1],"tree_param":{"num_deleted":"0","num_feature":"4","num_nodes":"15","size_leaf_vector":"1"}},{"base_weights":[4.403835E-2,-3.556492E0,6.453665E0,-7.9826385E-2,-1.2256725E0,3.6370358E0,9.850633E0,-3.2827266E-2,5.720281E-3,2.1112777E-2,5.561969E-2,6.457401E-2,1.2526375E-1],"categories":[],"categories_nodes":[],"categories_segments":[],"categories_sizes":[],"default_left":[0,0,0,0,0,0,0,0,0,0,0,0,0],"id":29,"left_children":[1,3,5,-1,7,9,11,-1,-1,-1,-1,-1,-1],"loss_changes":[2.6307725E3,7.4332404E2,3.564607E2,0E0,1.830782E2,5.874472E1,8.254175E1,0E0,0E0,0E0,0E0,0E0,0E0],"parents":[2147483647,0,0,1,1,2,2,4,4,5,5,6,6],"right_children":[2,4,6,-1,8,10,12,-1,-1,-1,-1,-1,-1],"split_conditions":[5.9010624E1,4.472243E1,6.694645E1,-7.9826385E-2,2.3271168E1,2.4530066E1,2.4058008E1,-3.2827266E-2,5.720281E-3,2.1112777E-2,5.561969E-2,6.457401E-2,1.2526375E-1],"split_indices":[0,0,0,0,2,2,2,0,0,0,0,0,0],"split_type":[0,0,0,0,0,0,0,0,0,0,0,0,0],"sum_hessian":[1.12E2,7.2E1,4E1,2.4E1,4.8E1,2.3E1,1.7E1,2.2E1,2.6E1,1.4E1,9E0,9E0,8E0],"tree_param":{"num_deleted":"0","num_feature":"4","num_nodes":"13","size_leaf_vector":"1"}},{"base_weights":[-1.741753E-1,-3.8702924E0,5.72759E0,-7.790372E0,-1.5029485E0,2.6167092E0,8.859956E0,-9.094409E-2,-6.0539115E-2,-3.2652225E-2,2.4895263E-3,7.918049E-3,3.59373E-2,6.193913E-2,1.170642E-1],"categories":[],"categories_nodes":[],"categories_segments":[],"categories_sizes":[],"default_left":[0,0,0,0,0,0,0,0,0,0,0,0,0,0,0],"id":30,"left_children":[1,3,5,7,9,11,13,-1,-1,-1,-1,-1,-1,-1,-1],"loss_changes":[2.6616147E3,6.843048E2,4.3480383E2,8.346558E0,1.4900473E2,4.1728714E1,1.0203357E2,0E0,0E0,0E0,0E0,0E0,0E0,0E0,0E0],"parents":[2147483647,0,0,1,1,2,2,3,3,4,4,5,5,6,6],"right_children":[2,4,6,8,10,12,14,-1,-1,-1,-1,-1,-1,-1,-1],"split_conditions":[5.83905E1,4.472243E1,6.512322E1,3.9158768E1,2.3271168E1,5.81E1,2.5684864E1,-9.094409E-2,-6.0539115E-2,-3.2652225E-2,2.4895263E-3,7.918049E-3,3.59373E-2,6.193913E-2,1.170642E-1],"split_indices":[0,0,0,0,2,1,2,0,0,0,0,0,0,0,0],"split_type":[0,0,0,0,0,0,0,0,0,0,0,0,0,0,0],"sum_hessian":[1.2E2,7.4E1,4.6E1,2.7E1,4.7E1,2.4E1,2.2E1,1.3E1,1.4E1,2.3E1,2.4E1,9E0,1.5E1,1.3E1,9E0],"tree_param":{"num_deleted":"0","num_feature":"4","num_nodes":"15","size_leaf_vector":"1"}},{"base_weights":[4.298654E-1,-3.6903782E0,6.5113153E0,-7.22946E0,-8.7338257E-1,3.8964849E0,8.207067E0,-9.469418E-2,-5.2100748E-2,-2.7503425E-2,8.664089E-3,4.9917497E-2,1.6296191E-2,5.918577E-2,1.1505641E-1],"categories":[],"categories_nodes":[],"categories_segments":[],"categories_sizes":[],"default_left":[0,0,0,0,0,0,0,0,0,0,0,0,0,0,0],"id":31,"left_children":[1,3,5,7,9,11,13,-1,-1,-1,-1,-1,-1,-1,-1],"loss_changes":[2.8554763E3,6.716174E2,1.7198999E2,8.636365E1,1.2973816E2,4.1521698E1,1.3571936E2,0E0,0E0,0E0,0E0,0E0,0E0,0E0,0E0],"parents":[2147483647,0,0,1,1,2,2,3,3,4,4,5,5,6,6],"right_children":[2,4,6,8,10,12,14,-1,-1,-1,-1,-1,-1,-1,-1],"split_conditions":[5.9010624E1,4.7245125E1,6.488336E1,3.9158768E1,2.2144428E1,6.17E1,6.83E1,-9.469418E-2,-5.2100748E-2,-2.7503425E-2,8.664089E-3,4.9917497E-2,1.6296191E-2,5.918577E-2,1.1505641E-1],"split_indices":[0,0,0,0,2,1,1,0,0,0,0,0,0,0,0],"split_type":[0,0,0,0,0,0,0,0,0,0,0,0,0,0,0],"sum_hessian":[1.12E2,6.7E1,4.5E1,2.9E1,3.8E1,1.9E1,2.6E1,1.2E1,1.7E1,1.8E1,2E1,1.2E1,7E0,1.7E1,9E0],"tree_param":{"num_deleted":"0","num_feature":"4","num_nodes":"15","size_leaf_vector":"1"}},{"base_weights":[-9.050677E-2,-4.3336663E0,6.2761183E0,-7.6776967E0,-1.139595E0,3.0995977E0,8.631946E0,-9.5546514E-2,-5.5942263E-2,-2.3694886E-2,1.1380435E-2,7.405629E-3,4.1511096E-2,5.2627176E-2,1.097648E-1],"categories":[],"categories_nodes":[],"categories_segments":[],"categories_sizes":[],"default_left":[0,0,0,0,0,0,0,0,0,0,0,0,0,0,0],"id":32,"left_children":[1,3,5,7,9,11,13,-1,-1,-1,-1,-1,-1,-1,-1],"loss_changes":[3.2419368E3,7.602875E2,3.3244446E2,8.341943E1,1.09144226E2,5.1498016E1,1.5551428E2,0E0,0E0,0E0,0E0,0E0,0E0,0E0,0E0],"parents":[2147483647,0,0,1,1,2,2,3,3,4,4,5,5,6,6],"right_children":[2,4,6,8,10,12,14,-1,-1,-1,-1,-1,-1,-1,-1],"split_conditions":[5.8222233E1,4.7245125E1,6.488336E1,3.9158768E1,5.37E1,5.72E1,6.5E1,-9.5546514E-2,-5.5942263E-2,-2.3694886E-2,1.1380435E-2,7.405629E-3,4.1511096E-2,5.2627176E-2,1.097648E-1],"split_indices":[0,0,0,0,1,1,1,0,0,0,0,0,0,0,0],"split_type":[0,0,0,0,0,0,0,0,0,0,0,0,0,0,0],"sum_hessian":[1.18E2,7.1E1,4.7E1,3.4E1,3.7E1,2.1E1,2.6E1,1.6E1,1.8E1,2.4E1,1.3E1,7E0,1.4E1,1.2E1,1.4E1],"tree_param":{"num_deleted":"0","num_feature":"4","num_nodes":"15","size_leaf_vector":"1"}},{"base_weights":[1.9477098E-1,-3.844306E0,6.4734516E0,-7.4784226E0,-7.638949E-1,3.7788477E0,9.373054E0,-9.624035E-2,-5.0191153E-2,-2.9749662E-2,1.0798859E-2,2.7536077E-2,5.2955396E-2,4.8773076E-2,1.12725474E-1],"categories":[],"categories_nodes":[],"categories_segments":[],"categories_sizes":[],"default_left":[0,0,0,0,0,0,0,0,0,0,0,0,0,0,0],"id":33,"left_children":[1,3,5,7,9,11,13,-1,-1,-1,-1,-1,-1,-1,-1],"loss_changes":[2.9159346E3,7.7790735E2,3.161781E2,1.20551025E2,1.6220514E2,2.4292511E1,1.2435278E2,0E0,0E0,0E0,0E0,0E0,0E0,0E0,0E0],"parents":[2147483647,0,0,1,1,2,2,3,3,4,4,5,5,6,6],"right_children":[2,4,6,8,10,12,14,-1,-1,-1,-1,-1,-1,-1,-1],"split_conditions":[5.83905E1,4.742406E1,6.694645E1,3.9158768E1,2.2144428E1,2.6039272E1,6.36E1,-9.624035E-2,-5.0191153E-2,-2.9749662E-2,1.0798859E-2,2.7536077E-2,5.2955396E-2,4.8773076E-2,1.12725474E-1],"split_indices":[0,0,0,0,2,2,1,0,0,0,0,0,0,0,0],"split_type":[0,0,0,0,0,0,0,0,0,0,0,0,0,0,0],"sum_hessian":[1.13E2,6.9E1,4.4E1,3.1E1,3.8E1,2.4E1,2E1,1.5E1,1.6E1,1.7E1,2.1E1,1.6E1,8E0,7E0,1.3E1],"tree_param":{"num_deleted":"0","num_feature":"4","num_nodes":"15","size_leaf_vector":"1"}},{"base_weights":[-2.8190238E-2,-3.7470586E0,6.0264373E0,-7.2407794E0,-6.144311E-1,4.5158687E0,1.1231266E-1,-8.394596E-2,-3.231201E-2,-2.4470333E-2,2.3586947E-2,2.9807936E-2,6.1524704E-2],"categories":[],"categories_nodes":[],"categories_segments":[],"categories_sizes":[],"default_left":[0,0,0,0,0,0,0,0,0,0,0,0,0],"id":34,"left_children":[1,3,5,7,9,11,-1,-1,-1,-1,-1,-1,-1],"loss_changes":[2.544414E3,7.616679E2,2.873578E2,1.2554382E2,2.1281699E2,6.959149E1,0E0,0E0,0E0,0E0,0E0,0E0,0E0],"parents":[2147483647,0,0,1,1,2,2,3,3,4,4,5,5],"right_children":[2,4,6,8,10,12,-1,-1,-1,-1,-1,-1,-1],"split_conditions":[5.9010624E1,4.7245125E1,7.562779E1,4.77E1,5.11E1,6.452029E1,1.1231266E-1,-8.394596E-2,-3.231201E-2,-2.4470333E-2,2.3586947E-2,2.9807936E-2,6.1524704E-2],"split_indices":[0,0,0,1,1,0,0,0,0,0,0,0,0],"split_type":[0,0,0,0,0,0,0,0,0,0,0,0,0],"sum_hessian":[1.11E2,6.9E1,4.2E1,3.2E1,3.7E1,3.4E1,8E0,2.4E1,8E0,2.3E1,1.4E1,1.9E1,1.5E1],"tree_param":{"num_deleted":"0","num_feature":"4","num_nodes":"13","size_leaf_vector":"1"}},{"base_weights":[1.9537532E-1,-3.4231968E0,5.7763157E0,-8.650577E0,-1.3468354E0,3.890764E0,9.068552E0,-9.6838064E-2,-5.890256E-2,-3.1509396E-2,8.89242E-3,2.04122E-2,5.1131442E-2,5.7893284E-2,1.1624109E-1],"categories":[],"categories_nodes":[],"categories_segments":[],"categories_sizes":[],"default_left":[0,0,0,0,0,0,0,0,0,0,0,0,0,0,0],"id":35,"left_children":[1,3,5,7,9,11,13,-1,-1,-1,-1,-1,-1,-1,-1],"loss_changes":[2.3623975E3,7.589781E2,2.5026965E2,8.544922E-4,2.12576E2,5.964923E1,6.678821E1,0E0,0E0,0E0,0E0,0E0,0E0,0E0,0E0],"parents":[2147483647,0,0,1,1,2,2,3,3,4,4,5,5,6,6],"right_children":[2,4,6,8,10,12,14,-1,-1,-1,-1,-1,-1,-1,-1],"split_conditions":[5.83905E1,4.3887543E1,6.809879E1,3.9158768E1,2.3271168E1,2.4058857E1,2.4058008E1,-9.6838064E-2,-5.890256E-2,-3.1509396E-2,8.89242E-3,2.04122E-2,5.1131442E-2,5.7893284E-2,1.1624109E-1],"split_indices":[0,0,0,0,2,2,2,0,0,0,0,0,0,0,0],"split_type":[0,0,0,0,0,0,0,0,0,0,0,0,0,0,0],"sum_hessian":[1.15E2,7E1,4.5E1,1.9E1,5.1E1,3E1,1.5E1,1.2E1,7E0,2.8E1,2.3E1,1.3E1,1.7E1,8E0,7E0],"tree_param":{"num_deleted":"0","num_feature":"4","num_nodes":"15","size_leaf_vector":"1"}},{"base_weights":[4.035452E-1,-3.6621535E0,5.599569E0,-7.4388E0,-7.05174E-1,2.4694176E0,8.393961E0,-9.964694E-2,-4.9215853E-2,-2.1903763E-2,1.3810525E-2,-3.7202241E-3,3.8284495E-2,4.6069518E-2,1.0863972E-1],"categories":[],"categories_nodes":[],"categories_segments":[],"categories_sizes":[],"default_left":[0,0,0,0,0,0,0,0,0,0,0,0,0,0,0],"id":36,"left_children":[1,3,5,7,9,11,13,-1,-1,-1,-1,-1,-1,-1,-1],"loss_changes":[2.407684E3,7.094721E2,4.1661536E2,1.2898804E2,1.1766835E2,9.796446E1,1.931532E2,0E0,0E0,0E0,0E0,0E0,0E0,0E0,0E0],"parents":[2147483647,0,0,1,1,2,2,3,3,4,4,5,5,6,6],"right_children":[2,4,6,8,10,12,14,-1,-1,-1,-1,-1,-1,-1,-1],"split_conditions":[5.83905E1,4.6173336E1,6.512322E1,3.9158768E1,5.37E1,5.72E1,6.5E1,-9.964694E-2,-4.9215853E-2,-2.1903763E-2,1.3810525E-2,-3.7202241E-3,3.8284495E-2,4.6069518E-2,1.0863972E-1],"split_indices":[0,0,0,0,1,1,1,0,0,0,0,0,0,0,0],"split_type":[0,0,0,0,0,0,0,0,0,0,0,0,0,0,0],"sum_hessian":[1.12E2,6.3E1,4.9E1,2.7E1,3.6E1,2.4E1,2.5E1,1.2E1,1.5E1,2.1E1,1.5E1,8E0,1.6E1,1.1E1,1.4E1],"tree_param":{"num_deleted":"0","num_feature":"4","num_nodes":"15","size_leaf_vector":"1"}},{"base_weights":[3.4767526E-1,-3.5125022E0,5.281749E0,-8.127406E0,-1.2301047E0,2.7054965E0,7.9599595E0,-1.01915665E-1,-6.367356E-2,2.932483E-3,-2.9125031E-2,5.584774E-3,3.7479796E-2,5.749662E-2,1.1661848E-1],"categories":[],"categories_nodes":[],"categories_segments":[],"categories_sizes":[],"default_left":[0,0,0,0,0,0,0,0,0,0,0,0,0,0,0],"id":37,"left_children":[1,3,5,7,9,11,13,-1,-1,-1,-1,-1,-1,-1,-1],"loss_changes":[2.1707954E3,6.641173E2,3.2345154E2,1.1400269E1,1.1362111E2,5.833908E1,1.2932288E2,0E0,0E0,0E0,0E0,0E0,0E0,0E0,0E0],"parents":[2147483647,0,0,1,1,2,2,3,3,4,4,5,5,6,6],"right_children":[2,4,6,8,10,12,14,-1,-1,-1,-1,-1,-1,-1,-1],"split_conditions":[5.83905E1,4.3887543E1,6.512322E1,3.6105434E1,6.903868E1,5.72E1,6.83E1,-1.01915665E-1,-6.367356E-2,2.932483E-3,-2.9125031E-2,5.584774E-3,3.7479796E-2,5.749662E-2,1.1661848E-1],"split_indices":[0,0,0,0,3,1,1,0,0,0,0,0,0,0,0],"split_type":[0,0,0,0,0,0,0,0,0,0,0,0,0,0,0],"sum_hessian":[1.12E2,6.3E1,4.9E1,2E1,4.3E1,2.6E1,2.3E1,7E0,1.3E1,2.3E1,2E1,9E0,1.7E1,1.6E1,7E0],"tree_param":{"num_deleted":"0","num_feature":"4","num_nodes":"15","size_leaf_vector":"1"}},{"base_weights":[-4.551896E-2,-3.861145E0,5.264168E0,-8.461146E0,-1.5779366E0,2.752366E0,7.451971E0,-1.00475565E-1,-5.2295364E-2,-2.8909413E-2,1.4221611E-3,4.0997103E-2,1.906671E-2,5.122968E-2,9.354059E-2],"categories":[],"categories_nodes":[],"categories_segments":[],"categories_sizes":[],"default_left":[0,0,0,0,0,0,0,0,0,0,0,0,0,0,0],"id":38,"left_children":[1,3,5,7,9,11,13,-1,-1,-1,-1,-1,-1,-1,-1],"loss_changes":[2.2286418E3,6.588257E2,2.3227454E2,5.5115723E1,9.9788155E1,1.839038E1,5.839868E1,0E0,0E0,0E0,0E0,0E0,0E0,0E0,0E0],"parents":[2147483647,0,0,1,1,2,2,3,3,4,4,5,5,6,6],"right_children":[2,4,6,8,10,12,14,-1,-1,-1,-1,-1,-1,-1,-1],"split_conditions":[5.83905E1,4.277239E1,6.512322E1,3.9158768E1,2.2489416E1,2.1698008E1,2.423225E1,-1.00475565E-1,-5.2295364E-2,-2.8909413E-2,1.4221611E-3,4.0997103E-2,1.906671E-2,5.122968E-2,9.354059E-2],"split_indices":[0,0,0,0,2,2,2,0,0,0,0,0,0,0,0],"split_type":[0,0,0,0,0,0,0,0,0,0,0,0,0,0,0],"sum_hessian":[1.08E2,6.3E1,4.5E1,2E1,4.3E1,2.2E1,2.3E1,1.2E1,8E0,2.4E1,1.9E1,7E0,1.5E1,1.2E1,1.1E1],"tree_param":{"num_deleted":"0","num_feature":"4","num_nodes":"15","size_leaf_vector":"1"}},{"base_weights":[7.3962003E-1,-1.8831358E0,6.938166E0,-7.960476E-2,-4.2548013E-1,4.740659E0,9.552131E0,-1.2167101E-2,2.2220619E-2,5.5985145E-2,3.2371674E-2,4.730502E-2,1.3179742E-1],"categories":[],"categories_nodes":[],"categories_segments":[],"categories_sizes":[],"default_left":[0,0,0,0,0,0,0,0,0,0,0,0,0],"id":39,"left_children":[1,3,5,-1,7,9,11,-1,-1,-1,-1,-1,-1],"loss_changes":[1.9151665E3,7.318825E2,1.557638E2,0E0,1.45151E2,8.962006E0,2.0001819E2,0E0,0E0,0E0,0E0,0E0,0E0],"parents":[2147483647,0,0,1,1,2,2,4,4,5,5,6,6],"right_children":[2,4,6,-1,8,10,12,-1,-1,-1,-1,-1,-1],"split_conditions":[6.2328957E1,4.277239E1,6.5E1,-7.960476E-2,5.86E1,6.08E1,2.4058857E1,-1.2167101E-2,2.2220619E-2,5.5985145E-2,3.2371674E-2,4.730502E-2,1.3179742E-1],"split_indices":[0,0,1,0,1,1,2,0,0,0,0,0,0],"split_type":[0,0,0,0,0,0,0,0,0,0,0,0,0],"sum_hessian":[1.16E2,8.2E1,3.4E1,1.5E1,6.7E1,2E1,1.4E1,5.2E1,1.5E1,1.1E1,9E0,7E0,7E0],"tree_param":{"num_deleted":"0","num_feature":"4","num_nodes":"13","size_leaf_vector":"1"}},{"base_weights":[3.9502883E-1,-3.365967E0,5.946174E0,-6.736026E0,-6.873075E-1,3.5871081E0,7.622875E0,-9.2291765E-2,-4.8068766E-2,-2.354002E-2,1.3879473E-2,4.9494285E-2,2.1529151E-2,4.860594E-2,1.0011264E-1],"categories":[],"categories_nodes":[],"categories_segments":[],"categories_sizes":[],"default_left":[0,0,0,0,0,0,0,0,0,0,0,0,0,0,0],"id":40,"left_children":[1,3,5,7,9,11,13,-1,-1,-1,-1,-1,-1,-1,-1],"loss_changes":[2.3792102E3,6.092224E2,1.5460657E2,9.992639E1,1.3816104E2,3.0374725E1,1.22871704E2,0E0,0E0,0E0,0E0,0E0,0E0,0E0,0E0],"parents":[2147483647,0,0,1,1,2,2,3,3,4,4,5,5,6,6],"right_children":[2,4,6,8,10,12,14,-1,-1,-1,-1,-1,-1,-1,-1],"split_conditions":[5.83905E1,4.7245125E1,6.512322E1,3.7764927E1,2.3271168E1,6.08E1,6.5E1,-9.2291765E-2,-4.8068766E-2,-2.354002E-2,1.3879473E-2,4.9494285E-2,2.1529151E-2,4.860594E-2,1.0011264E-1],"split_indices":[0,0,0,0,2,1,1,0,0,0,0,0,0,0,0],"split_type":[0,0,0,0,0,0,0,0,0,0,0,0,0,0,0],"sum_hessian":[1.12E2,6.7E1,4.5E1,2.9E1,3.8E1,2E1,2.5E1,1.1E1,1.8E1,2.1E1,1.7E1,9E0,1.1E1,1.3E1,1.2E1],"tree_param":{"num_deleted":"0","num_feature":"4","num_nodes":"15","size_leaf_vector":"1"}},{"base_weights":[3.7306127E-1,-3.4167395E0,5.734174E0,-8.983244E0,-1.2331332E0,2.2462273E0,7.9419236E0,-1.1207135E-1,-6.7520455E-2,-3.207869E-2,5.678593E-3,-7.0575713E-3,3.890046E-2,5.1902514E-2,1.0519412E-1],"categories":[],"categories_nodes":[],"categories_segments":[],"categories_sizes":[],"default_left":[0,0,0,0,0,0,0,0,0,0,0,0,0,0,0],"id":41,"left_children":[1,3,5,7,9,11,13,-1,-1,-1,-1,-1,-1,-1,-1],"loss_changes":[2.35611E3,8.154662E2,3.517854E2,1.8605835E1,1.7964586E2,9.979599E1,1.5108118E2,0E0,0E0,0E0,0E0,0E0,0E0,0E0,0E0],"parents":[2147483647,0,0,1,1,2,2,3,3,4,4,5,5,6,6],"right_children":[2,4,6,8,10,12,14,-1,-1,-1,-1,-1,-1,-1,-1],"split_conditions":[5.8199997E1,4.3887543E1,6.3937824E1,3.545722E1,2.2489416E1,5.81E1,6.5E1,-1.1207135E-1,-6.7520455E-2,-3.207869E-2,5.678593E-3,-7.0575713E-3,3.890046E-2,5.1902514E-2,1.0519412E-1],"split_indices":[0,0,0,0,2,1,1,0,0,0,0,0,0,0,0],"split_type":[0,0,0,0,0,0,0,0,0,0,0,0,0,0,0],"sum_hessian":[1.14E2,6.7E1,4.7E1,1.8E1,4.9E1,1.9E1,2.8E1,7E0,1.1E1,2.3E1,2.6E1,7E0,1.2E1,1.5E1,1.3E1],"tree_param":{"num_deleted":"0","num_feature":"4","num_nodes":"15","size_leaf_vector":"1"}},{"base_weights":[-1.8607731E-1,-3.323452E0,5.217453E0,-6.4053574E0,-9.5265144E-1,2.1438334E0,8.644924E0,-2.4987854E-2,-7.399246E-2,-2.2950802E-2,1.706221E-2,9.3492883E-4,3.367805E-2,4.467519E-2,1.1057566E-1],"categories":[],"categories_nodes":[],"categories_segments":[],"categories_sizes":[],"default_left":[0,0,0,0,0,0,0,0,0,0,0,0,0,0,0],"id":42,"left_children":[1,3,5,7,9,11,13,-1,-1,-1,-1,-1,-1,-1,-1],"loss_changes":[1.9838763E3,5.34585E2,4.3446057E2,1.057572E2,1.5739783E2,5.9914528E1,1.5217188E2,0E0,0E0,0E0,0E0,0E0,0E0,0E0,0E0],"parents":[2147483647,0,0,1,1,2,2,3,3,4,4,5,5,6,6],"right_children":[2,4,6,8,10,12,14,-1,-1,-1,-1,-1,-1,-1,-1],"split_conditions":[5.8222233E1,4.7245125E1,6.512322E1,7.033577E1,5.37E1,5.81E1,2.4058008E1,-2.4987854E-2,-7.399246E-2,-2.2950802E-2,1.706221E-2,9.3492883E-4,3.367805E-2,4.467519E-2,1.1057566E-1],"split_indices":[0,0,0,3,1,1,2,0,0,0,0,0,0,0,0],"split_type":[0,0,0,0,0,0,0,0,0,0,0,0,0,0,0],"sum_hessian":[1.15E2,7.3E1,4.2E1,3.1E1,4.2E1,2.3E1,1.9E1,7E0,2.4E1,2.8E1,1.4E1,9E0,1.4E1,8E0,1.1E1],"tree_param":{"num_deleted":"0","num_feature":"4","num_nodes":"15","size_leaf_vector":"1"}},{"base_weights":[-1.3000336E-1,-3.345438E0,4.360916E0,-7.097226E0,-9.432491E-1,2.1723595E0,7.0713286E0,-8.74244E-2,-5.3079065E-2,-2.1624519E-2,6.1255135E-4,4.9262047E-3,2.9420977E-2,4.684598E-2,9.228272E-2],"categories":[],"categories_nodes":[],"categories_segments":[],"categories_sizes":[],"default_left":[0,0,0,0,0,0,0,0,0,0,0,0,0,0,0],"id":43,"left_children":[1,3,5,7,9,11,13,-1,-1,-1,-1,-1,-1,-1,-1],"loss_changes":[1.6607786E3,5.9714325E2,2.6936926E2,3.0135132E1,5.156962E1,3.4753525E1,6.4878174E1,0E0,0E0,0E0,0E0,0E0,0E0,0E0,0E0],"parents":[2147483647,0,0,1,1,2,2,3,3,4,4,5,5,6,6],"right_children":[2,4,6,8,10,12,14,-1,-1,-1,-1,-1,-1,-1,-1],"split_conditions":[5.83905E1,4.472243E1,6.619784E1,3.98E1,5.06E1,5.72E1,6.83E1,-8.74244E-2,-5.3079065E-2,-2.1624519E-2,6.1255135E-4,4.9262047E-3,2.9420977E-2,4.684598E-2,9.228272E-2],"split_indices":[0,0,0,1,1,1,1,0,0,0,0,0,0,0,0],"split_type":[0,0,0,0,0,0,0,0,0,0,0,0,0,0,0],"sum_hessian":[1.13E2,6.6E1,4.7E1,2.5E1,4.1E1,2.7E1,2E1,1.1E1,1.4E1,1.8E1,2.3E1,9E0,1.8E1,1.1E1,9E0],"tree_param":{"num_deleted":"0","num_feature":"4","num_nodes":"15","size_leaf_vector":"1"}},{"base_weights":[4.260386E-1,-3.0618148E0,5.421088E0,-7.8539667E0,-8.0753195E-1,2.6616502E0,7.839671E0,-1.0096872E-1,-6.011309E-2,-2.2120217E-2,9.698143E-3,1.1840041E-2,3.3707943E-2,4.243877E-2,1.05558135E-1],"categories":[],"categories_nodes":[],"categories_segments":[],"categories_sizes":[],"default_left":[0,0,0,0,0,0,0,0,0,0,0,0,0,0,0],"id":44,"left_children":[1,3,5,7,9,11,13,-1,-1,-1,-1,-1,-1,-1,-1],"loss_changes":[1.9504404E3,7.066467E2,2.861344E2,2.6095703E1,1.16973434E2,2.0109848E1,1.8960278E2,0E0,0E0,0E0,0E0,0E0,0E0,0E0,0E0],"parents":[2147483647,0,0,1,1,2,2,3,3,4,4,5,5,6,6],"right_children":[2,4,6,8,10,12,14,-1,-1,-1,-1,-1,-1,-1,-1],"split_conditions":[5.83905E1,4.472243E1,6.512322E1,3.6105434E1,2.3271168E1,5.81E1,2.423225E1,-1.0096872E-1,-6.011309E-2,-2.2120217E-2,9.698143E-3,1.1840041E-2,3.3707943E-2,4.243877E-2,1.05558135E-1],"split_indices":[0,0,0,0,2,1,2,0,0,0,0,0,0,0,0],"split_type":[0,0,0,0,0,0,0,0,0,0,0,0,0,0,0],"sum_hessian":[1.1E2,6.5E1,4.5E1,2E1,4.5E1,2.2E1,2.3E1,7E0,1.3E1,2.5E1,2E1,8E0,1.4E1,1.1E1,1.2E1],"tree_param":{"num_deleted":"0","num_feature":"4","num_nodes":"15","size_leaf_vector":"1"}},{"base_weights":[-4.665056E-1,-3.068717E0,5.5406027E0,-6.149507E0,-4.283273E-1,2.9766297E-2,6.863986E0,-8.359574E-2,-4.2780537E-2,-2.3656072E-2,8.548299E-3,4.504633E-2,8.59934E-2],"categories":[],"categories_nodes":[],"categories_segments":[],"categories_sizes":[],"default_left":[0,0,0,0,0,0,0,0,0,0,0,0,0],"id":45,"left_children":[1,3,5,7,9,-1,11,-1,-1,-1,-1,-1,-1],"loss_changes":[1.7052333E3,6.155869E2,9.154138E1,1.0899866E2,1.0642725E2,0E0,4.7243652E1,0E0,0E0,0E0,0E0,0E0,0E0],"parents":[2147483647,0,0,1,1,2,2,3,3,4,4,6,6],"right_children":[2,4,6,8,10,-1,12,-1,-1,-1,-1,-1,-1],"split_conditions":[6.012044E1,4.7830112E1,6.512322E1,3.9158768E1,5.15E1,2.9766297E-2,2.423225E1,-8.359574E-2,-4.2780537E-2,-2.3656072E-2,8.548299E-3,4.504633E-2,8.59934E-2],"split_indices":[0,0,0,0,1,0,2,0,0,0,0,0,0],"split_type":[0,0,0,0,0,0,0,0,0,0,0,0,0],"sum_hessian":[1.07E2,7.5E1,3.2E1,3.4E1,4.1E1,1.2E1,2E1,1.4E1,2E1,1.6E1,2.5E1,1E1,1E1],"tree_param":{"num_deleted":"0","num_feature":"4","num_nodes":"13","size_leaf_vector":"1"}},{"base_weights":[-3.3688504E-1,-5.7155704E0,2.9595776E0,-8.30665E0,-2.5796046E0,1.5781403E0,1.06759556E-1,-1.0662968E-1,-6.49617E-2,-1.520335E-2,-3.4868408E-2,7.518441E-5,3.8028743E-2],"categories":[],"categories_nodes":[],"categories_segments":[],"categories_sizes":[],"default_left":[0,0,0,0,0,0,0,0,0,0,0,0,0],"id":46,"left_children":[1,3,5,7,9,11,-1,-1,-1,-1,-1,-1,-1],"loss_changes":[1.9140938E3,3.1171912E2,6.9735126E2,2.4584839E1,1.3918991E1,2.0263594E2,0E0,0E0,0E0,0E0,0E0,0E0,0E0],"parents":[2147483647,0,0,1,1,2,2,3,3,4,4,5,5],"right_children":[2,4,6,8,10,12,-1,-1,-1,-1,-1,-1,-1],"split_conditions":[4.97E1,4.472243E1,6.78E1,3.46E1,6.88615E1,6.012044E1,1.06759556E-1,-1.0662968E-1,-6.49617E-2,-1.520335E-2,-3.4868408E-2,7.518441E-5,3.8028743E-2],"split_indices":[1,0,1,1,3,0,0,0,0,0,0,0,0],"split_type":[0,0,0,0,0,0,0,0,0,0,0,0,0],"sum_hessian":[1.06E2,4E1,6.6E1,2.1E1,1.9E1,5.7E1,9E0,7E0,1.4E1,1E1,9E0,3.4E1,2.3E1],"tree_param":{"num_deleted":"0","num_feature":"4","num_nodes":"13","size_leaf_vector":"1"}},{"base_weights":[-1.4662306E-1,-3.4889147E0,5.666089E0,-6.6528754E0,-9.9520856E-1,3.4777367E0,8.679682E0,-7.709584E-2,-3.9346512E-2,-2.4003942E-2,6.705154E-3,1.5907038E-2,4.5577135E-2,5.2908678E-2,1.18307374E-1],"categories":[],"categories_nodes":[],"categories_segments":[],"categories_sizes":[],"default_left":[0,0,0,0,0,0,0,0,0,0,0,0,0,0,0],"id":47,"left_children":[1,3,5,7,9,11,13,-1,-1,-1,-1,-1,-1,-1,-1],"loss_changes":[2.2345352E3,5.6934814E2,2.4679602E2,6.15813E1,9.991687E1,4.5736755E1,1.1893701E2,0E0,0E0,0E0,0E0,0E0,0E0,0E0,0E0],"parents":[2147483647,0,0,1,1,2,2,3,3,4,4,5,5,6,6],"right_children":[2,4,6,8,10,12,14,-1,-1,-1,-1,-1,-1,-1,-1],"split_conditions":[5.8222233E1,4.7245125E1,6.5E1,4.3887543E1,5.15E1,6.1559986E1,7.06875E1,-7.709584E-2,-3.9346512E-2,-2.4003942E-2,6.705154E-3,1.5907038E-2,4.5577135E-2,5.2908678E-2,1.18307374E-1],"split_indices":[0,0,1,0,1,0,0,0,0,0,0,0,0,0,0],"split_type":[0,0,0,0,0,0,0,0,0,0,0,0,0,0,0],"sum_hessian":[1.13E2,7.2E1,4.1E1,3.1E1,4.1E1,2.5E1,1.6E1,2.1E1,1E1,2.2E1,1.9E1,1E1,1.5E1,9E0,7E0],"tree_param":{"num_deleted":"0","num_feature":"4","num_nodes":"15","size_leaf_vector":"1"}},{"base_weights":[-1.8131715E-1,-3.411025E0,4.465165E0,-5.81412E0,-6.132816E-1,2.2198029E0,6.6180363E0,-7.24702E-2,-3.480499E-2,1.066216E-2,-2.2567037E-2,4.1697263E-3,2.8977385E-2,4.674807E-2,9.337328E-2],"categories":[],"categories_nodes":[],"categories_segments":[],"categories_sizes":[],"default_left":[0,0,0,0,0,0,0,0,0,0,0,0,0,0,0],"id":48,"left_children":[1,3,5,7,9,11,13,-1,-1,-1,-1,-1,-1,-1,-1],"loss_changes":[1.7560175E3,4.6033795E2,2.1734003E2,9.8499146E1,9.349021E1,2.9346794E1,8.317078E1,0E0,0E0,0E0,0E0,0E0,0E0,0E0,0E0],"parents":[2147483647,0,0,1,1,2,2,3,3,4,4,5,5,6,6],"right_children":[2,4,6,8,10,12,14,-1,-1,-1,-1,-1,-1,-1,-1],"split_conditions":[5.83905E1,4.99E1,6.512322E1,4.7245125E1,6.903868E1,2.1478882E1,6.71E1,-7.24702E-2,-3.480499E-2,1.066216E-2,-2.2567037E-2,4.1697263E-3,2.8977385E-2,4.674807E-2,9.337328E-2],"split_indices":[0,1,0,0,3,2,1,0,0,0,0,0,0,0,0],"split_type":[0,0,0,0,0,0,0,0,0,0,0,0,0,0,0],"sum_hessian":[1.15E2,6.8E1,4.7E1,3.6E1,3.2E1,2.4E1,2.3E1,2.1E1,1.5E1,1.6E1,1.6E1,7E0,1.7E1,1.5E1,8E0],"tree_param":{"num_deleted":"0","num_feature":"4","num_nodes":"15","size_leaf_vector":"1"}},{"base_weights":[-4.5841392E-2,-2.7877712E0,5.7526913E0,-5.7474823E0,-8.612627E-1,3.532439E0,8.168464E0,-3.3153243E-2,-6.6761866E-2,-2.4567124E-2,7.035959E-3,4.7034852E-2,1.8910438E-2,1.0984894E-1,4.7573633E-2],"categories":[],"categories_nodes":[],"categories_segments":[],"categories_sizes":[],"default_left":[0,0,0,0,0,0,0,0,0,0,0,0,0,0,0],"id":49,"left_children":[1,3,5,7,9,11,13,-1,-1,-1,-1,-1,-1,-1,-1],"loss_changes":[1.7331476E3,4.1699115E2,1.588722E2,4.3370117E1,1.16574585E2,2.9548523E1,1.01454956E2,0E0,0E0,0E0,0E0,0E0,0E0,0E0,0E0],"parents":[2147483647,0,0,1,1,2,2,3,3,4,4,5,5,6,6],"right_children":[2,4,6,8,10,12,14,-1,-1,-1,-1,-1,-1,-1,-1],"split_conditions":[6.012044E1,4.7245125E1,6.809879E1,7.093401E1,5.15E1,6.0609715E1,6.363165E1,-3.3153243E-2,-6.6761866E-2,-2.4567124E-2,7.035959E-3,4.7034852E-2,1.8910438E-2,1.0984894E-1,4.7573633E-2],"split_indices":[0,0,0,3,1,3,3,0,0,0,0,0,0,0,0],"split_type":[0,0,0,0,0,0,0,0,0,0,0,0,0,0,0],"sum_hessian":[1.07E2,7.3E1,3.4E1,2.8E1,4.5E1,1.9E1,1.5E1,9E0,1.9E1,2.2E1,2.3E1,1E1,9E0,7E0,8E0],"tree_param":{"num_deleted":"0","num_feature":"4","num_nodes":"15","size_leaf_vector":"1"}},{"base_weights":[1.4545325E-2,-3.1377957E0,4.879799E0,-7.995251E0,-1.33724E0,3.513998E0,8.456735E-2,-9.925074E-2,-5.689464E-2,-3.2263022E-2,4.646478E-3,1.3912564E-2,4.561026E-2],"categories":[],"categories_nodes":[],"categories_segments":[],"categories_sizes":[],"default_left":[0,0,0,0,0,0,0,0,0,0,0,0,0],"id":50,"left_children":[1,3,5,7,9,11,-1,-1,-1,-1,-1,-1,-1],"loss_changes":[1.7943969E3,6.102829E2,1.9501062E2,2.8077148E1,1.8190466E2,7.144437E1,0E0,0E0,0E0,0E0,0E0,0E0,0E0],"parents":[2147483647,0,0,1,1,2,2,3,3,4,4,5,5],"right_children":[2,4,6,8,10,12,-1,-1,-1,-1,-1,-1,-1],"split_conditions":[5.83905E1,4.3887543E1,7.098692E1,3.7764927E1,2.2489416E1,5.8E1,8.456735E-2,-9.925074E-2,-5.689464E-2,-3.2263022E-2,4.646478E-3,1.3912564E-2,4.561026E-2],"split_indices":[0,0,0,0,2,1,0,0,0,0,0,0,0],"split_type":[0,0,0,0,0,0,0,0,0,0,0,0,0],"sum_hessian":[1.15E2,7E1,4.5E1,1.8E1,5.2E1,3.4E1,1.1E1,8E0,1E1,2.5E1,2.7E1,1.2E1,2.2E1],"tree_param":{"num_deleted":"0","num_feature":"4","num_nodes":"13","size_leaf_vector":"1"}},{"base_weights":[1.2154589E-1,-3.0226903E0,5.079751E0,-7.161338E0,-1.1412318E0,2.5511446E0,7.1859837E0,-8.624281E-2,-5.4851245E-2,-2.7230844E-2,4.236739E-3,-7.7956676E-4,3.783256E-2,4.588271E-2,9.838892E-2],"categories":[],"categories_nodes":[],"categories_segments":[],"categories_sizes":[],"default_left":[0,0,0,0,0,0,0,0,0,0,0,0,0,0,0],"id":51,"left_children":[1,3,5,7,9,11,13,-1,-1,-1,-1,-1,-1,-1,-1],"loss_changes":[1.8081777E3,5.4468243E2,2.2133008E2,6.6433105E0,1.2492622E2,7.156052E1,1.2025232E2,0E0,0E0,0E0,0E0,0E0,0E0,0E0,0E0],"parents":[2147483647,0,0,1,1,2,2,3,3,4,4,5,5,6,6],"right_children":[2,4,6,8,10,12,14,-1,-1,-1,-1,-1,-1,-1,-1],"split_conditions":[5.83905E1,4.3887543E1,6.512322E1,3.6105434E1,2.2489416E1,5.53E1,2.423225E1,-8.624281E-2,-5.4851245E-2,-2.7230844E-2,4.236739E-3,-7.7956676E-4,3.783256E-2,4.588271E-2,9.838892E-2],"split_indices":[0,0,0,0,2,1,2,0,0,0,0,0,0,0,0],"split_type":[0,0,0,0,0,0,0,0,0,0,0,0,0,0,0],"sum_hessian":[1.14E2,7E1,4.4E1,2.1E1,4.9E1,2.1E1,2.3E1,9E0,1.2E1,2.4E1,2.5E1,7E0,1.4E1,1.3E1,1E1],"tree_param":{"num_deleted":"0","num_feature":"4","num_nodes":"15","size_leaf_vector":"1"}},{"base_weights":[-6.079545E-2,-3.4641232E0,4.7731457E0,-6.588294E-2,-1.2765628E0,2.0879917E0,7.1714425E0,-2.6870634E-2,1.9196337E-3,-3.5895878E-3,3.260613E-2,5.0097287E-2,1.0698041E-1],"categories":[],"categories_nodes":[],"categories_segments":[],"categories_sizes":[],"default_left":[0,0,0,0,0,0,0,0,0,0,0,0,0],"id":52,"left_children":[1,3,5,-1,7,9,11,-1,-1,-1,-1,-1,-1],"loss_changes":[1.9907133E3,4.7682593E2,3.0701575E2,0E0,8.9584175E1,7.29041E1,1.446167E2,0E0,0E0,0E0,0E0,0E0,0E0],"parents":[2147483647,0,0,1,1,2,2,4,4,5,5,6,6],"right_children":[2,4,6,-1,8,10,12,-1,-1,-1,-1,-1,-1],"split_conditions":[5.83905E1,4.472243E1,6.488336E1,-6.588294E-2,5.06E1,5.72E1,2.5684864E1,-2.6870634E-2,1.9196337E-3,-3.5895878E-3,3.260613E-2,5.0097287E-2,1.0698041E-1],"split_indices":[0,0,0,0,1,1,2,0,0,0,0,0,0],"split_type":[0,0,0,0,0,0,0,0,0,0,0,0,0],"sum_hessian":[1.19E2,7E1,4.9E1,2.8E1,4.2E1,2.4E1,2.5E1,2.1E1,2.1E1,8E0,1.6E1,1.7E1,8E0],"tree_param":{"num_deleted":"0","num_feature":"4","num_nodes":"13","size_leaf_vector":"1"}},{"base_weights":[1.8512931E-1,-2.6800895E0,4.7392244E0,-5.977321E0,-7.154649E-1,2.8272703E0,6.5226665E0,-6.875978E-2,-4.5497432E-2,-2.4822902E-2,1.4219683E-2,3.6327266E-3,3.8825646E-2,4.3249752E-2,7.993661E-2],"categories":[],"categories_nodes":[],"categories_segments":[],"categories_sizes":[],"default_left":[0,0,0,0,0,0,0,0,0,0,0,0,0,0,0],"id":53,"left_children":[1,3,5,7,9,11,13,-1,-1,-1,-1,-1,-1,-1,-1],"loss_changes":[1.4871797E3,4.4917096E2,1.3159253E2,2.0715332E0,1.7347093E2,5.8395157E1,3.654901E1,0E0,0E0,0E0,0E0,0E0,0E0,0E0,0E0],"parents":[2147483647,0,0,1,1,2,2,3,3,4,4,5,5,6,6],"right_children":[2,4,6,8,10,12,14,-1,-1,-1,-1,-1,-1,-1,-1],"split_conditions":[5.83905E1,4.472243E1,6.512322E1,3.9158768E1,2.243388E1,5.72E1,6.42E1,-6.875978E-2,-4.5497432E-2,-2.4822902E-2,1.4219683E-2,3.6327266E-3,3.8825646E-2,4.3249752E-2,7.993661E-2],"split_indices":[0,0,0,0,2,1,1,0,0,0,0,0,0,0,0],"split_type":[0,0,0,0,0,0,0,0,0,0,0,0,0,0,0],"sum_hessian":[1.12E2,6.9E1,4.3E1,2.5E1,4.4E1,2.2E1,2.1E1,1.3E1,1.2E1,2.4E1,2E1,7E0,1.5E1,1E1,1.1E1],"tree_param":{"num_deleted":"0","num_feature":"4","num_nodes":"15","size_leaf_vector":"1"}},{"base_weights":[-9.032079E-2,-3.6867638E0,4.961925E0,-7.901496E0,-1.3998183E0,2.8335187E0,8.908617E0,-1.011788E-1,-6.29946E-2,-3.267219E-2,4.472528E-3,1.6969226E-2,5.164338E-2,4.869451E-2,1.15091406E-1],"categories":[],"categories_nodes":[],"categories_segments":[],"categories_sizes":[],"default_left":[0,0,0,0,0,0,0,0,0,0,0,0,0,0,0],"id":54,"left_children":[1,3,5,7,9,11,13,-1,-1,-1,-1,-1,-1,-1,-1],"loss_changes":[2.0533464E3,6.251043E2,3.6956494E2,1.7929565E1,1.5322705E2,7.6010895E1,1.1202002E2,0E0,0E0,0E0,0E0,0E0,0E0,0E0,0E0],"parents":[2147483647,0,0,1,1,2,2,3,3,4,4,5,5,6,6],"right_children":[2,4,6,8,10,12,14,-1,-1,-1,-1,-1,-1,-1,-1],"split_conditions":[5.8222233E1,4.472243E1,6.694645E1,3.46E1,5.06E1,2.6039272E1,2.3262959E1,-1.011788E-1,-6.29946E-2,-3.267219E-2,4.472528E-3,1.6969226E-2,5.164338E-2,4.869451E-2,1.15091406E-1],"split_indices":[0,0,0,1,1,2,2,0,0,0,0,0,0,0,0],"split_type":[0,0,0,0,0,0,0,0,0,0,0,0,0,0,0],"sum_hessian":[1.11E2,6.5E1,4.6E1,2.2E1,4.3E1,3.1E1,1.5E1,7E0,1.5E1,2.1E1,2.2E1,2.2E1,9E0,7E0,8E0],"tree_param":{"num_deleted":"0","num_feature":"4","num_nodes":"15","size_leaf_vector":"1"}},{"base_weights":[1.3111298E-1,-2.952133E0,4.7859926E0,-6.338321E-2,-1.0881579E0,2.030433E0,7.1296678E0,-2.2646938E-2,1.12129925E-2,2.770404E-2,5.715438E-3,3.8374405E-2,9.442315E-2],"categories":[],"categories_nodes":[],"categories_segments":[],"categories_sizes":[],"default_left":[0,0,0,0,0,0,0,0,0,0,0,0,0],"id":55,"left_children":[1,3,5,-1,7,9,11,-1,-1,-1,-1,-1,-1],"loss_changes":[1.693329E3,4.412386E2,2.8905627E2,0E0,1.2471617E2,2.3245918E1,1.5410962E2,0E0,0E0,0E0,0E0,0E0,0E0],"parents":[2147483647,0,0,1,1,2,2,4,4,5,5,6,6],"right_children":[2,4,6,-1,8,10,12,-1,-1,-1,-1,-1,-1],"split_conditions":[5.83905E1,4.472243E1,6.512322E1,-6.338321E-2,5.37E1,2.5172422E1,6.42E1,-2.2646938E-2,1.12129925E-2,2.770404E-2,5.715438E-3,3.8374405E-2,9.442315E-2],"split_indices":[0,0,0,0,1,2,1,0,0,0,0,0,0],"split_type":[0,0,0,0,0,0,0,0,0,0,0,0,0],"sum_hessian":[1.16E2,7E1,4.6E1,2.4E1,4.6E1,2.2E1,2.4E1,3E1,1.6E1,1.4E1,8E0,1.1E1,1.3E1],"tree_param":{"num_deleted":"0","num_feature":"4","num_nodes":"13","size_leaf_vector":"1"}},{"base_weights":[3.9916936E-1,-2.8976872E0,5.090451E0,-6.704303E0,-1.4693519E0,2.0153172E0,7.293686E0,-7.98371E-2,-4.8824057E-2,-2.4993744E-2,-1.5152657E-3,3.2882767E-3,3.252782E-2,4.6938647E-2,9.060618E-2],"categories":[],"categories_nodes":[],"categories_segments":[],"categories_sizes":[],"default_left":[0,0,0,0,0,0,0,0,0,0,0,0,0,0,0],"id":56,"left_children":[1,3,5,7,9,11,13,-1,-1,-1,-1,-1,-1,-1,-1],"loss_changes":[1.7624628E3,3.5443628E2,3.037373E2,2.977295E0,6.7490776E1,4.275679E1,8.150073E1,0E0,0E0,0E0,0E0,0E0,0E0,0E0,0E0],"parents":[2147483647,0,0,1,1,2,2,3,3,4,4,5,5,6,6],"right_children":[2,4,6,8,10,12,14,-1,-1,-1,-1,-1,-1,-1,-1],"split_conditions":[5.83905E1,4.2599434E1,6.3937824E1,3.98E1,2.2489416E1,5.72E1,6.5E1,-7.98371E-2,-4.8824057E-2,-2.4993744E-2,-1.5152657E-3,3.2882767E-3,3.252782E-2,4.6938647E-2,9.060618E-2],"split_indices":[0,0,0,1,2,1,1,0,0,0,0,0,0,0,0],"split_type":[0,0,0,0,0,0,0,0,0,0,0,0,0,0,0],"sum_hessian":[1.12E2,6.6E1,4.6E1,1.7E1,4.9E1,2E1,2.6E1,8E0,9E0,2.7E1,2.2E1,9E0,1.1E1,1.2E1,1.4E1],"tree_param":{"num_deleted":"0","num_feature":"4","num_nodes":"15","size_leaf_vector":"1"}},{"base_weights":[-3.966678E-1,-3.7282865E0,4.8244963E0,-6.1752887E0,-1.4649119E0,2.592168E0,7.28487E0,-3.9978996E-2,-7.110868E-2,-2.7991552E-2,1.2766862E-3,4.1347504E-2,1.4153532E-2,5.398914E-2,8.967451E-2],"categories":[],"categories_nodes":[],"categories_segments":[],"categories_sizes":[],"default_left":[0,0,0,0,0,0,0,0,0,0,0,0,0,0,0],"id":57,"left_children":[1,3,5,7,9,11,13,-1,-1,-1,-1,-1,-1,-1,-1],"loss_changes":[1.740085E3,3.288012E2,1.9531842E2,3.064795E1,7.047873E1,3.408522E1,8.704468E0,0E0,0E0,0E0,0E0,0E0,0E0,0E0,0E0],"parents":[2147483647,0,0,1,1,2,2,3,3,4,4,5,5,6,6],"right_children":[2,4,6,8,10,12,14,-1,-1,-1,-1,-1,-1,-1,-1],"split_conditions":[5.83905E1,4.7245125E1,6.694645E1,7.093401E1,5.11E1,6.0806892E1,2.5033571E1,-3.9978996E-2,-7.110868E-2,-2.7991552E-2,1.2766862E-3,4.1347504E-2,1.4153532E-2,5.398914E-2,8.967451E-2],"split_indices":[0,0,0,3,1,0,2,0,0,0,0,0,0,0,0],"split_type":[0,0,0,0,0,0,0,0,0,0,0,0,0,0,0],"sum_hessian":[9.8E1,6E1,3.8E1,2.8E1,3.2E1,2.1E1,1.7E1,1E1,1.8E1,1.7E1,1.5E1,8E0,1.3E1,1E1,7E0],"tree_param":{"num_deleted":"0","num_feature":"4","num_nodes":"15","size_leaf_vector":"1"}},{"base_weights":[8.159888E-1,-2.266613E0,5.1017876E0,-5.363459E0,-4.134091E-1,3.2875507E0,8.216716E0,-4.24654E-2,-7.2060935E-2,-2.3450132E-2,1.5369864E-2,4.3710966E-2,2.201954E-2,4.7509067E-2,1.0769556E-1],"categories":[],"categories_nodes":[],"categories_segments":[],"categories_sizes":[],"default_left":[0,0,0,0,0,0,0,0,0,0,0,0,0,0,0],"id":58,"left_children":[1,3,5,7,9,11,13,-1,-1,-1,-1,-1,-1,-1,-1],"loss_changes":[1.5176646E3,3.8230154E2,2.442456E2,2.085083E1,1.6560213E2,2.8016449E1,9.9244995E1,0E0,0E0,0E0,0E0,0E0,0E0,0E0,0E0],"parents":[2147483647,0,0,1,1,2,2,3,3,4,4,5,5,6,6],"right_children":[2,4,6,8,10,12,14,-1,-1,-1,-1,-1,-1,-1,-1],"split_conditions":[5.83905E1,4.472243E1,6.809879E1,2.2489416E1,2.3271168E1,6.0707245E1,2.4058008E1,-4.24654E-2,-7.2060935E-2,-2.3450132E-2,1.5369864E-2,4.3710966E-2,2.201954E-2,4.7509067E-2,1.0769556E-1],"split_indices":[0,0,0,2,2,3,2,0,0,0,0,0,0,0,0],"split_type":[0,0,0,0,0,0,0,0,0,0,0,0,0,0,0],"sum_hessian":[1.13E2,6.6E1,4.7E1,2.4E1,4.2E1,3.1E1,1.6E1,1.7E1,7E0,2.1E1,2.1E1,1.4E1,1.7E1,8E0,8E0],"tree_param":{"num_deleted":"0","num_feature":"4","num_nodes":"15","size_leaf_vector":"1"}},{"base_weights":[-7.193306E-2,-5.1343026E0,2.3918135E0,-6.03634E-2,-2.1853713E-2,-1.8001051E-1,4.4662085E0,1.892172E-2,-1.5528936E-2,3.239892E-2,7.5161725E-2],"categories":[],"categories_nodes":[],"categories_segments":[],"categories_sizes":[],"default_left":[0,0,0,0,0,0,0,0,0,0,0],"id":59,"left_children":[1,3,5,-1,-1,7,9,-1,-1,-1,-1],"loss_changes":[1.3717715E3,8.257001E1,3.955924E2,0E0,0E0,9.966374E1,1.2899756E2,0E0,0E0,0E0,0E0],"parents":[2147483647,0,0,1,1,2,2,5,5,6,6],"right_children":[2,4,6,-1,-1,8,10,-1,-1,-1,-1],"split_conditions":[4.7830112E1,4.99E1,5.83905E1,-6.03634E-2,-2.1853713E-2,5.382376E1,2.6039272E1,1.892172E-2,-1.5528936E-2,3.239892E-2,7.5161725E-2],"split_indices":[0,1,0,0,0,0,2,0,0,0,0],"split_type":[0,0,0,0,0,0,0,0,0,0,0],"sum_hessian":[1.08E2,3.5E1,7.3E1,2.6E1,9E0,3.3E1,4E1,1.3E1,2E1,3E1,1E1],"tree_param":{"num_deleted":"0","num_feature":"4","num_nodes":"11","size_leaf_vector":"1"}},{"base_weights":[-1.1592995E-1,-2.611462E0,5.006083E0,-6.342333E0,-9.947541E-1,3.4391434E0,8.6820066E-2,-7.858232E-2,-5.093244E-2,-2.9946668E-2,5.06895E-5,2.3695048E-2,4.5733523E-2],"categories":[],"categories_nodes":[],"categories_segments":[],"categories_sizes":[],"default_left":[0,0,0,0,0,0,0,0,0,0,0,0,0],"id":60,"left_children":[1,3,5,7,9,11,-1,-1,-1,-1,-1,-1,-1],"loss_changes":[1.5213666E3,4.7622925E2,1.9477942E2,5.419922E0,1.13990036E2,2.4346008E1,0E0,0E0,0E0,0E0,0E0,0E0,0E0],"parents":[2147483647,0,0,1,1,2,2,3,3,4,4,5,5],"right_children":[2,4,6,8,10,12,-1,-1,-1,-1,-1,-1,-1],"split_conditions":[6.012044E1,4.472243E1,7.098692E1,3.6105434E1,4.99E1,6.512322E1,8.6820066E-2,-7.858232E-2,-5.093244E-2,-2.9946668E-2,5.06895E-5,2.3695048E-2,4.5733523E-2],"split_indices":[0,0,0,0,1,0,0,0,0,0,0,0,0],"split_type":[0,0,0,0,0,0,0,0,0,0,0,0,0],"sum_hessian":[1.17E2,7.9E1,3.8E1,2.3E1,5.6E1,2.8E1,1E1,8E0,1.5E1,1.8E1,3.8E1,1.6E1,1.2E1],"tree_param":{"num_deleted":"0","num_feature":"4","num_nodes":"13","size_leaf_vector":"1"}},{"base_weights":[1.9165352E-2,-5.242456E0,2.4524257E0,-7.6454915E-2,-3.447326E0,6.496043E-1,5.9672375E0,-8.408873E-3,-4.7813673E-2,-1.2388666E-2,1.6282527E-2,3.959626E-2,7.824694E-2],"categories":[],"categories_nodes":[],"categories_segments":[],"categories_sizes":[],"default_left":[0,0,0,0,0,0,0,0,0,0,0,0,0],"id":61,"left_children":[1,3,5,-1,7,9,11,-1,-1,-1,-1,-1,-1],"loss_changes":[1.4979926E3,1.3325256E2,5.0304993E2,0E0,7.595267E1,1.01817245E2,6.970148E1,0E0,0E0,0E0,0E0,0E0,0E0],"parents":[2147483647,0,0,1,1,2,2,4,4,5,5,6,6],"right_children":[2,4,6,-1,8,10,12,-1,-1,-1,-1,-1,-1],"split_conditions":[4.7830112E1,4.0657646E1,6.3937824E1,-7.6454915E-2,6.842527E1,5.11E1,6.5E1,-8.408873E-3,-4.7813673E-2,-1.2388666E-2,1.6282527E-2,3.959626E-2,7.824694E-2],"split_indices":[0,0,0,0,3,1,1,0,0,0,0,0,0],"split_type":[0,0,0,0,0,0,0,0,0,0,0,0,0],"sum_hessian":[1.15E2,3.6E1,7.9E1,1.4E1,2.2E1,5.3E1,2.6E1,8E0,1.4E1,1.8E1,3.5E1,1.4E1,1.2E1],"tree_param":{"num_deleted":"0","num_feature":"4","num_nodes":"13","size_leaf_vector":"1"}},{"base_weights":[-1.8783633E-1,-3.2794843E0,4.1959114E0,-6.1739774E0,-1.0989896E0,2.482827E0,6.679944E0,-8.723614E-2,-4.7872767E-2,-1.8705495E-2,4.675181E-3,5.2701323E-3,3.434383E-2,3.5014924E-2,8.673227E-2],"categories":[],"categories_nodes":[],"categories_segments":[],"categories_sizes":[],"default_left":[0,0,0,0,0,0,0,0,0,0,0,0,0,0,0],"id":62,"left_children":[1,3,5,7,9,11,13,-1,-1,-1,-1,-1,-1,-1,-1],"loss_changes":[1.5723558E3,4.223919E2,1.87672E2,6.076953E1,4.92207E1,5.4022034E1,9.000635E1,0E0,0E0,0E0,0E0,0E0,0E0,0E0,0E0],"parents":[2147483647,0,0,1,1,2,2,3,3,4,4,5,5,6,6],"right_children":[2,4,6,8,10,12,14,-1,-1,-1,-1,-1,-1,-1,-1],"split_conditions":[5.83905E1,4.7245125E1,6.653278E1,3.6105434E1,5.37E1,5.72E1,6.42E1,-8.723614E-2,-4.7872767E-2,-1.8705495E-2,4.675181E-3,5.2701323E-3,3.434383E-2,3.5014924E-2,8.673227E-2],"split_indices":[0,0,0,0,1,1,1,0,0,0,0,0,0,0,0],"split_type":[0,0,0,0,0,0,0,0,0,0,0,0,0,0,0],"sum_hessian":[1.14E2,6.7E1,4.7E1,2.8E1,3.9E1,2.9E1,1.8E1,8E0,2E1,2.6E1,1.3E1,1E1,1.9E1,8E0,1E1],"tree_param":{"num_deleted":"0","num_feature":"4","num_nodes":"15","size_leaf_vector":"1"}},{"base_weights":[-3.8446646E-2,-2.0142176E0,4.752466E0,-5.9960713E0,-4.953193E-1,3.518941E0,8.167366E-2,-8.327435E-2,-4.352939E-2,-2.0659694E-2,9.899767E-3,2.0335695E-2,4.472642E-2],"categories":[],"categories_nodes":[],"categories_segments":[],"categories_sizes":[],"default_left":[0,0,0,0,0,0,0,0,0,0,0,0,0],"id":63,"left_children":[1,3,5,7,9,11,-1,-1,-1,-1,-1,-1,-1],"loss_changes":[1.0697362E3,4.808726E2,1.1026752E2,4.8027405E1,1.3968521E2,2.7736176E1,0E0,0E0,0E0,0E0,0E0,0E0,0E0],"parents":[2147483647,0,0,1,1,2,2,3,3,4,4,5,5],"right_children":[2,4,6,8,10,12,-1,-1,-1,-1,-1,-1,-1],"split_conditions":[6.1214973E1,4.472243E1,7.562779E1,3.8485043E1,5.15E1,6.512322E1,8.167366E-2,-8.327435E-2,-4.352939E-2,-2.0659694E-2,9.899767E-3,2.0335695E-2,4.472642E-2],"split_indices":[0,0,0,0,1,0,0,0,0,0,0,0,0],"split_type":[0,0,0,0,0,0,0,0,0,0,0,0,0],"sum_hessian":[1.11E2,7.9E1,3.2E1,2.1E1,5.8E1,2.5E1,7E0,7E0,1.4E1,2.8E1,3E1,1.1E1,1.4E1],"tree_param":{"num_deleted":"0","num_feature":"4","num_nodes":"13","size_leaf_vector":"1"}},{"base_weights":[-1.22236304E-1,-6.116671E0,2.3074365E0,-9.47701E-2,-4.7966957E0,1.0877094E0,9.0269364E-2,-2.829099E-2,-5.72665E-2,-4.144943E-3,3.2485183E-2],"categories":[],"categories_nodes":[],"categories_segments":[],"categories_sizes":[],"default_left":[0,0,0,0,0,0,0,0,0,0,0],"id":64,"left_children":[1,3,5,-1,7,9,-1,-1,-1,-1,-1],"loss_changes":[1.6162106E3,9.647974E1,6.3766187E2,0E0,2.9543152E1,2.2207285E2,0E0,0E0,0E0,0E0,0E0],"parents":[2147483647,0,0,1,1,2,2,4,4,5,5],"right_children":[2,4,6,-1,8,10,-1,-1,-1,-1,-1],"split_conditions":[4.742406E1,3.46E1,7.098692E1,-9.47701E-2,7.093401E1,5.86E1,9.0269364E-2,-2.829099E-2,-5.72665E-2,-4.144943E-3,3.2485183E-2],"split_indices":[0,1,0,0,3,1,0,0,0,0,0],"split_type":[0,0,0,0,0,0,0,0,0,0,0],"sum_hessian":[1.09E2,3.1E1,7.8E1,7E0,2.4E1,6.7E1,1.1E1,9E0,1.5E1,4E1,2.7E1],"tree_param":{"num_deleted":"0","num_feature":"4","num_nodes":"11","size_leaf_vector":"1"}},{"base_weights":[-8.726093E-2,-2.8726528E0,3.9445243E0,-4.930416E0,-2.5756714E-1,2.3769603E0,6.3379908E0,-6.0114514E-2,-2.8720643E-2,-2.4055485E-2,4.6915864E-3,-2.5720883E-3,3.189847E-2,4.626699E-2,7.898767E-2],"categories":[],"categories_nodes":[],"categories_segments":[],"categories_sizes":[],"default_left":[0,0,0,0,0,0,0,0,0,0,0,0,0,0,0],"id":65,"left_children":[1,3,5,7,9,11,13,-1,-1,-1,-1,-1,-1,-1,-1],"loss_changes":[1.2915629E3,3.646535E2,1.6127466E2,6.729053E1,4.9519382E1,6.505887E1,1.1531799E1,0E0,0E0,0E0,0E0,0E0,0E0,0E0,0E0],"parents":[2147483647,0,0,1,1,2,2,3,3,4,4,5,5,6,6],"right_children":[2,4,6,8,10,12,14,-1,-1,-1,-1,-1,-1,-1,-1],"split_conditions":[5.83905E1,4.99E1,6.694645E1,4.7245125E1,2.0381296E1,5.72E1,2.4058008E1,-6.0114514E-2,-2.8720643E-2,-2.4055485E-2,4.6915864E-3,-2.5720883E-3,3.189847E-2,4.626699E-2,7.898767E-2],"split_indices":[0,1,0,0,2,1,2,0,0,0,0,0,0,0,0],"split_type":[0,0,0,0,0,0,0,0,0,0,0,0,0,0,0],"sum_hessian":[1.13E2,6.7E1,4.6E1,3.7E1,3E1,2.9E1,1.7E1,2.3E1,1.4E1,7E0,2.3E1,7E0,2.2E1,1E1,7E0],"tree_param":{"num_deleted":"0","num_feature":"4","num_nodes":"15","size_leaf_vector":"1"}},{"base_weights":[5.705737E-1,-2.4298897E0,4.483284E0,-5.616586E0,-6.763205E-1,2.5622177E0,7.969619E0,-4.444805E-2,-7.404547E-2,6.4195846E-3,-2.5140682E-2,1.6455647E-2,4.4125915E-2,5.0555576E-2,1.098025E-1],"categories":[],"categories_nodes":[],"categories_segments":[],"categories_sizes":[],"default_left":[0,0,0,0,0,0,0,0,0,0,0,0,0,0,0],"id":66,"left_children":[1,3,5,7,9,11,13,-1,-1,-1,-1,-1,-1,-1,-1],"loss_changes":[1.4079471E3,3.761917E2,3.27849E2,1.7370605E1,1.1063382E2,5.210408E1,1.0240564E2,0E0,0E0,0E0,0E0,0E0,0E0,0E0,0E0],"parents":[2147483647,0,0,1,1,2,2,3,3,4,4,5,5,6,6],"right_children":[2,4,6,8,10,12,14,-1,-1,-1,-1,-1,-1,-1,-1],"split_conditions":[5.83905E1,4.472243E1,6.809879E1,7.9483955E1,6.903868E1,2.6039272E1,2.4480864E1,-4.444805E-2,-7.404547E-2,6.4195846E-3,-2.5140682E-2,1.6455647E-2,4.4125915E-2,5.0555576E-2,1.098025E-1],"split_indices":[0,0,0,3,3,2,2,0,0,0,0,0,0,0,0],"split_type":[0,0,0,0,0,0,0,0,0,0,0,0,0,0,0],"sum_hessian":[1.18E2,6.7E1,5.1E1,2.3E1,4.4E1,3.4E1,1.7E1,1.6E1,7E0,2.6E1,1.8E1,2.4E1,1E1,1E1,7E0],"tree_param":{"num_deleted":"0","num_feature":"4","num_nodes":"15","size_leaf_vector":"1"}},{"base_weights":[2.9872404E-3,-5.5707297E0,2.1901042E0,-8.1963174E-2,-4.3011203E0,5.013686E-1,5.8177185E0,-1.8154008E-2,-5.5058107E-2,-1.8011598E-2,1.6701974E-2,3.1767547E-2,8.011165E-2],"categories":[],"categories_nodes":[],"categories_segments":[],"categories_sizes":[],"default_left":[0,0,0,0,0,0,0,0,0,0,0,0,0],"id":67,"left_children":[1,3,5,-1,7,9,11,-1,-1,-1,-1,-1,-1],"loss_changes":[1.3409509E3,6.808423E1,4.8104367E2,0E0,5.8878754E1,1.5102766E2,1.1937073E2,0E0,0E0,0E0,0E0,0E0,0E0],"parents":[2147483647,0,0,1,1,2,2,4,4,5,5,6,6],"right_children":[2,4,6,-1,8,10,12,-1,-1,-1,-1,-1,-1],"split_conditions":[4.742406E1,3.7764927E1,6.484676E1,-8.1963174E-2,7.053663E1,5.11E1,6.5E1,-1.8154008E-2,-5.5058107E-2,-1.8011598E-2,1.6701974E-2,3.1767547E-2,8.011165E-2],"split_indices":[0,0,0,0,3,1,1,0,0,0,0,0,0],"split_type":[0,0,0,0,0,0,0,0,0,0,0,0,0],"sum_hessian":[1.08E2,3E1,7.8E1,8E0,2.2E1,5.4E1,2.4E1,8E0,1.4E1,1.8E1,3.6E1,1.2E1,1.2E1],"tree_param":{"num_deleted":"0","num_feature":"4","num_nodes":"13","size_leaf_vector":"1"}},{"base_weights":[-1.8052746E-1,-4.885523E0,2.2362535E0,-7.119065E-2,-3.1929317E0,6.9199985E-1,5.5533032E0,-1.2301934E-2,-4.2885616E-2,-1.9188685E-2,1.7731022E-2,4.051435E-2,7.606257E-2],"categories":[],"categories_nodes":[],"categories_segments":[],"categories_sizes":[],"default_left":[0,0,0,0,0,0,0,0,0,0,0,0,0],"id":68,"left_children":[1,3,5,-1,7,9,11,-1,-1,-1,-1,-1,-1],"loss_changes":[1.3072129E3,1.2470776E2,3.8545688E2,0E0,4.63347E1,1.5300102E2,4.318219E1,0E0,0E0,0E0,0E0,0E0,0E0],"parents":[2147483647,0,0,1,1,2,2,4,4,5,5,6,6],"right_children":[2,4,6,-1,8,10,12,-1,-1,-1,-1,-1,-1],"split_conditions":[4.7909267E1,3.9158768E1,6.3937824E1,-7.119065E-2,6.842527E1,5.11E1,6.83E1,-1.2301934E-2,-4.2885616E-2,-1.9188685E-2,1.7731022E-2,4.051435E-2,7.606257E-2],"split_indices":[0,0,0,0,3,1,1,0,0,0,0,0,0],"split_type":[0,0,0,0,0,0,0,0,0,0,0,0,0],"sum_hessian":[1.13E2,3.8E1,7.5E1,1.5E1,2.3E1,5.2E1,2.3E1,9E0,1.4E1,1.5E1,3.7E1,1.5E1,8E0],"tree_param":{"num_deleted":"0","num_feature":"4","num_nodes":"13","size_leaf_vector":"1"}},{"base_weights":[-3.1941324E-1,-3.0885005E0,4.156146E0,-5.653609E0,-9.592012E-1,2.5695782E0,8.172862E-2,-7.538247E-2,-4.307453E-2,3.066591E-3,-3.0894123E-2,1.273994E-2,3.7140105E-2],"categories":[],"categories_nodes":[],"categories_segments":[],"categories_sizes":[],"default_left":[0,0,0,0,0,0,0,0,0,0,0,0,0],"id":69,"left_children":[1,3,5,7,9,11,-1,-1,-1,-1,-1,-1,-1],"loss_changes":[1.4256626E3,3.823708E2,2.594021E2,4.871393E1,1.08809395E2,4.4197754E1,0E0,0E0,0E0,0E0,0E0,0E0,0E0],"parents":[2147483647,0,0,1,1,2,2,3,3,4,4,5,5],"right_children":[2,4,6,8,10,12,-1,-1,-1,-1,-1,-1,-1],"split_conditions":[5.8222233E1,4.7245125E1,6.83E1,3.7764927E1,6.903868E1,6.512322E1,8.172862E-2,-7.538247E-2,-4.307453E-2,3.066591E-3,-3.0894123E-2,1.273994E-2,3.7140105E-2],"split_indices":[0,0,1,0,3,0,0,0,0,0,0,0,0],"split_type":[0,0,0,0,0,0,0,0,0,0,0,0,0],"sum_hessian":[1.13E2,7E1,4.3E1,3.1E1,3.9E1,3.2E1,1.1E1,1.1E1,2E1,2.5E1,1.4E1,1.6E1,1.6E1],"tree_param":{"num_deleted":"0","num_feature":"4","num_nodes":"13","size_leaf_vector":"1"}},{"base_weights":[3.1847197E-1,-2.914276E0,4.402388E0,-6.9897294E-2,-1.4648814E0,3.2217915E0,8.1879236E-2,-2.2937708E-2,2.8626751E-2,1.6913656E-2,4.3275133E-2],"categories":[],"categories_nodes":[],"categories_segments":[],"categories_sizes":[],"default_left":[0,0,0,0,0,0,0,0,0,0,0],"id":70,"left_children":[1,3,5,-1,7,9,-1,-1,-1,-1,-1],"loss_changes":[1.4650796E3,3.5599127E2,1.9261053E2,0E0,1.751584E2,5.867737E1,0E0,0E0,0E0,0E0,0E0],"parents":[2147483647,0,0,1,1,2,2,4,4,5,5],"right_children":[2,4,6,-1,8,10,-1,-1,-1,-1,-1],"split_conditions":[5.52E1,3.9158768E1,6.85E1,-6.9897294E-2,5.9746582E1,6.012044E1,8.1879236E-2,-2.2937708E-2,2.8626751E-2,1.6913656E-2,4.3275133E-2],"split_indices":[1,0,1,0,0,0,0,0,0,0,0],"split_type":[0,0,0,0,0,0,0,0,0,0,0],"sum_hessian":[1.09E2,6.1E1,4.8E1,1.5E1,4.6E1,3.8E1,1E1,3.9E1,7E0,1.7E1,2.1E1],"tree_param":{"num_deleted":"0","num_feature":"4","num_nodes":"11","size_leaf_vector":"1"}},{"base_weights":[2.5803232E-1,-2.707561E0,4.48009E0,-5.1313677E0,-7.2277784E-1,2.801647E0,7.2772465E0,-6.0390666E-2,-1.8803123E-2,-2.3815667E-2,1.2526302E-2,2.0712717E-2,4.1283082E-2,9.4922826E-2,3.5987943E-2],"categories":[],"categories_nodes":[],"categories_segments":[],"categories_sizes":[],"default_left":[0,0,0,0,0,0,0,0,0,0,0,0,0,0,0],"id":71,"left_children":[1,3,5,7,9,11,13,-1,-1,-1,-1,-1,-1,-1,-1],"loss_changes":[1.4269927E3,3.186101E2,2.0027063E2,7.717407E1,1.27501045E2,2.1486923E1,1.0435358E2,0E0,0E0,0E0,0E0,0E0,0E0,0E0,0E0],"parents":[2147483647,0,0,1,1,2,2,3,3,4,4,5,5,6,6],"right_children":[2,4,6,8,10,12,14,-1,-1,-1,-1,-1,-1,-1,-1],"split_conditions":[5.83905E1,4.7245125E1,6.809879E1,4.99E1,2.3271168E1,2.562192E1,6.363165E1,-6.0390666E-2,-1.8803123E-2,-2.3815667E-2,1.2526302E-2,2.0712717E-2,4.1283082E-2,9.4922826E-2,3.5987943E-2],"split_indices":[0,0,0,1,2,2,3,0,0,0,0,0,0,0,0],"split_type":[0,0,0,0,0,0,0,0,0,0,0,0,0,0,0],"sum_hessian":[1.12E2,6.6E1,4.6E1,2.9E1,3.7E1,3E1,1.6E1,2.2E1,7E0,2E1,1.7E1,2.1E1,9E0,9E0,7E0],"tree_param":{"num_deleted":"0","num_feature":"4","num_nodes":"15","size_leaf_vector":"1"}},{"base_weights":[4.2437598E-1,-2.188461E0,5.1701975E0,-7.496283E-2,-9.818482E-1,2.8895228E0,7.9516873E0,6.90228E-3,-2.735383E-2,3.7994146E-2,1.3267215E-2,4.74164E-2,1.0278213E-1],"categories":[],"categories_nodes":[],"categories_segments":[],"categories_sizes":[],"default_left":[0,0,0,0,0,0,0,0,0,0,0,0,0],"id":72,"left_children":[1,3,5,-1,7,9,11,-1,-1,-1,-1,-1,-1],"loss_changes":[1.3629211E3,4.4735828E2,2.2442676E2,0E0,1.7487863E2,2.766478E1,7.822485E1,0E0,0E0,0E0,0E0,0E0,0E0],"parents":[2147483647,0,0,1,1,2,2,4,4,5,5,6,6],"right_children":[2,4,6,-1,8,10,12,-1,-1,-1,-1,-1,-1],"split_conditions":[5.86E1,3.9158768E1,2.4234032E1,-7.496283E-2,6.903868E1,2.1663273E1,6.5432686E1,6.90228E-3,-2.735383E-2,3.7994146E-2,1.3267215E-2,4.74164E-2,1.0278213E-1],"split_indices":[1,0,2,0,3,2,0,0,0,0,0,0,0],"split_type":[0,0,0,0,0,0,0,0,0,0,0,0,0],"sum_hessian":[1.08E2,7E1,3.8E1,1.2E1,5.8E1,2.2E1,1.6E1,3E1,2.8E1,1.3E1,9E0,8E0,8E0],"tree_param":{"num_deleted":"0","num_feature":"4","num_nodes":"13","size_leaf_vector":"1"}},{"base_weights":[-1.8629535E-1,-5.280553E0,2.1978548E0,-6.8981595E-2,-3.937614E0,7.6526725E-1,5.5280485E0,-2.4656126E-2,-4.6026424E-2,-1.0471093E-2,1.5356552E-2,3.992335E-2,7.473343E-2],"categories":[],"categories_nodes":[],"categories_segments":[],"categories_sizes":[],"default_left":[0,0,0,0,0,0,0,0,0,0,0,0,0],"id":73,"left_children":[1,3,5,-1,7,9,11,-1,-1,-1,-1,-1,-1],"loss_changes":[1.3718989E3,5.1042175E1,3.6312067E2,0E0,1.0187958E1,7.840082E1,3.887451E1,0E0,0E0,0E0,0E0,0E0,0E0],"parents":[2147483647,0,0,1,1,2,2,4,4,5,5,6,6],"right_children":[2,4,6,-1,8,10,12,-1,-1,-1,-1,-1,-1],"split_conditions":[4.7909267E1,3.9158768E1,6.512322E1,-6.8981595E-2,7.053663E1,5.11E1,6.83E1,-2.4656126E-2,-4.6026424E-2,-1.0471093E-2,1.5356552E-2,3.992335E-2,7.473343E-2],"split_indices":[0,0,0,0,3,1,1,0,0,0,0,0,0],"split_type":[0,0,0,0,0,0,0,0,0,0,0,0,0],"sum_hessian":[1.11E2,3.5E1,7.6E1,1.4E1,2.1E1,5.4E1,2.2E1,8E0,1.3E1,1.6E1,3.8E1,1.4E1,8E0],"tree_param":{"num_deleted":"0","num_feature":"4","num_nodes":"13","size_leaf_vector":"1"}},{"base_weights":[-1.4078449E-1,-2.0294335E0,4.920462E0,-6.206261E0,-4.212946E-1,3.110952E0,6.6432095E0,-8.2611255E-2,-4.790937E-2,-2.0859873E-2,2.169514E-3,4.431504E-2,1.4447381E-2,9.495344E-2,2.9606743E-2],"categories":[],"categories_nodes":[],"categories_segments":[],"categories_sizes":[],"default_left":[0,0,0,0,0,0,0,0,0,0,0,0,0,0,0],"id":74,"left_children":[1,3,5,7,9,11,13,-1,-1,-1,-1,-1,-1,-1,-1],"loss_changes":[1.0901434E3,5.548895E2,7.597052E1,2.7312317E1,6.526406E1,3.1003113E1,1.2943365E2,0E0,0E0,0E0,0E0,0E0,0E0,0E0,0E0],"parents":[2147483647,0,0,1,1,2,2,3,3,4,4,5,5,6,6],"right_children":[2,4,6,8,10,12,14,-1,-1,-1,-1,-1,-1,-1,-1],"split_conditions":[6.3937824E1,4.472243E1,6.5E1,3.58E1,2.1164051E1,6.02E1,6.363165E1,-8.2611255E-2,-4.790937E-2,-2.0859873E-2,2.169514E-3,4.431504E-2,1.4447381E-2,9.495344E-2,2.9606743E-2],"split_indices":[0,0,1,1,2,1,3,0,0,0,0,0,0,0,0],"split_type":[0,0,0,0,0,0,0,0,0,0,0,0,0,0,0],"sum_hessian":[1.12E2,8.2E1,3E1,2.2E1,6E1,1.6E1,1.4E1,7E0,1.5E1,1.6E1,4.4E1,8E0,8E0,7E0,7E0],"tree_param":{"num_deleted":"0","num_feature":"4","num_nodes":"15","size_leaf_vector":"1"}},{"base_weights":[1.8516812E-2,-2.0054145E0,4.9145274E0,-4.5851064E0,4.9340644E-1,1.8079821E0,7.366507E0,-3.5369553E-2,-6.474008E-2,1.3099943E-2,-1.45308245E-2,7.7125216E-3,2.6187142E-2,3.8092084E-2,1.0892317E-1],"categories":[],"categories_nodes":[],"categories_segments":[],"categories_sizes":[],"default_left":[0,0,0,0,0,0,0,0,0,0,0,0,0,0,0],"id":75,"left_children":[1,3,5,7,9,11,13,-1,-1,-1,-1,-1,-1,-1,-1],"loss_changes":[1.0503204E3,4.8572644E2,2.2281421E2,5.0356323E1,6.389322E1,1.0587967E1,1.71729E2,0E0,0E0,0E0,0E0,0E0,0E0,0E0,0E0],"parents":[2147483647,0,0,1,1,2,2,3,3,4,4,5,5,6,6],"right_children":[2,4,6,8,10,12,14,-1,-1,-1,-1,-1,-1,-1,-1],"split_conditions":[6.1214973E1,4.96E1,2.423225E1,7.9483955E1,7.4103714E1,6.619784E1,6.809879E1,-3.5369553E-2,-6.474008E-2,1.3099943E-2,-1.45308245E-2,7.7125216E-3,2.6187142E-2,3.8092084E-2,1.0892317E-1],"split_indices":[0,1,2,3,3,0,0,0,0,0,0,0,0,0,0],"split_type":[0,0,0,0,0,0,0,0,0,0,0,0,0,0,0],"sum_hessian":[1.04E2,7.4E1,3E1,3.6E1,3.8E1,1.4E1,1.6E1,2.5E1,1.1E1,2.7E1,1.1E1,7E0,7E0,9E0,7E0],"tree_param":{"num_deleted":"0","num_feature":"4","num_nodes":"15","size_leaf_vector":"1"}},{"base_weights":[-2.6579496E-1,-2.2385771E0,4.4543457E0,-5.420497E0,-7.6940364E-1,2.6453686E0,5.769259E0,-4.5898158E-2,-6.819637E-2,-1.232665E-2,2.3958782E-2,4.401648E-2,9.758079E-3,2.325574E-2,7.44466E-2],"categories":[],"categories_nodes":[],"categories_segments":[],"categories_sizes":[],"default_left":[0,0,0,0,0,0,0,0,0,0,0,0,0,0,0],"id":76,"left_children":[1,3,5,7,9,11,13,-1,-1,-1,-1,-1,-1,-1,-1],"loss_changes":[1.1367002E3,3.9786157E2,7.036957E1,7.965088E-2,9.093448E1,4.5552505E1,9.8078E1,0E0,0E0,0E0,0E0,0E0,0E0,0E0,0E0],"parents":[2147483647,0,0,1,1,2,2,3,3,4,4,5,5,6,6],"right_children":[2,4,6,8,10,12,14,-1,-1,-1,-1,-1,-1,-1,-1],"split_conditions":[6.012044E1,4.472243E1,6.653278E1,2.2155111E1,6.25E1,5.96E1,6.42E1,-4.5898158E-2,-6.819637E-2,-1.232665E-2,2.3958782E-2,4.401648E-2,9.758079E-3,2.325574E-2,7.44466E-2],"split_indices":[0,0,0,2,1,1,1,0,0,0,0,0,0,0,0],"split_type":[0,0,0,0,0,0,0,0,0,0,0,0,0,0,0],"sum_hessian":[1.2E2,8.5E1,3.5E1,2.6E1,5.9E1,1.6E1,1.9E1,1.9E1,7E0,5.2E1,7E0,7E0,9E0,7E0,1.2E1],"tree_param":{"num_deleted":"0","num_feature":"4","num_nodes":"15","size_leaf_vector":"1"}},{"base_weights":[1.862986E-1,-4.179523E0,2.0869606E0,-2.0229213E0,-5.7756343E0,7.7809805E-1,6.110371E0,-2.48369E-2,-1.2516913E-2,-6.641817E-2,-4.075228E-2,-3.4754383E-3,2.3678984E-2,2.2229206E-2,9.3867846E-2],"categories":[],"categories_nodes":[],"categories_segments":[],"categories_sizes":[],"default_left":[0,0,0,0,0,0,0,0,0,0,0,0,0,0,0],"id":77,"left_children":[1,3,5,7,9,11,13,-1,-1,-1,-1,-1,-1,-1,-1],"loss_changes":[9.297952E2,1.0535028E2,4.0600064E2,2.5769272E0,9.1748047E-1,1.0819571E2,2.2113489E2,0E0,0E0,0E0,0E0,0E0,0E0,0E0,0E0],"parents":[2147483647,0,0,1,1,2,2,3,3,4,4,5,5,6,6],"right_children":[2,4,6,8,10,12,14,-1,-1,-1,-1,-1,-1,-1,-1],"split_conditions":[4.7909267E1,7.093401E1,6.36E1,4.64E1,4.41E1,5.9010624E1,2.4058857E1,-2.48369E-2,-1.2516913E-2,-6.641817E-2,-4.075228E-2,-3.4754383E-3,2.3678984E-2,2.2229206E-2,9.3867846E-2],"split_indices":[0,3,1,1,1,0,2,0,0,0,0,0,0,0,0],"split_type":[0,0,0,0,0,0,0,0,0,0,0,0,0,0,0],"sum_hessian":[1.1E2,3.3E1,7.7E1,1.5E1,1.8E1,5.9E1,1.8E1,8E0,7E0,1E1,8E0,3.5E1,2.4E1,9E0,9E0],"tree_param":{"num_deleted":"0","num_feature":"4","num_nodes":"15","size_leaf_vector":"1"}},{"base_weights":[2.196561E-1,-2.1389143E0,4.198138E0,-4.378848E0,-4.1035226E-1,2.1980424E0,6.819425E0,-5.0194114E-2,-1.749662E-2,1.0746773E-2,-1.812974E-2,1.107981E-2,3.131101E-2,4.0219072E-2,1.01632744E-1],"categories":[],"categories_nodes":[],"categories_segments":[],"categories_sizes":[],"default_left":[0,0,0,0,0,0,0,0,0,0,0,0,0,0,0],"id":78,"left_children":[1,3,5,7,9,11,13,-1,-1,-1,-1,-1,-1,-1,-1],"loss_changes":[1.135003E3,2.9246487E2,2.2093774E2,4.6794983E1,9.3597496E1,2.3992249E1,1.3685931E2,0E0,0E0,0E0,0E0,0E0,0E0,0E0,0E0],"parents":[2147483647,0,0,1,1,2,2,3,3,4,4,5,5,6,6],"right_children":[2,4,6,8,10,12,14,-1,-1,-1,-1,-1,-1,-1,-1],"split_conditions":[5.9010624E1,4.7245125E1,6.809879E1,4.99E1,6.903868E1,2.4530066E1,2.4480864E1,-5.0194114E-2,-1.749662E-2,1.0746773E-2,-1.812974E-2,1.107981E-2,3.131101E-2,4.0219072E-2,1.01632744E-1],"split_indices":[0,0,0,1,3,2,2,0,0,0,0,0,0,0,0],"split_type":[0,0,0,0,0,0,0,0,0,0,0,0,0,0,0],"sum_hessian":[1.19E2,7.5E1,4.4E1,3.2E1,4.3E1,2.6E1,1.8E1,2.5E1,7E0,2.1E1,2.2E1,1.3E1,1.3E1,1.1E1,7E0],"tree_param":{"num_deleted":"0","num_feature":"4","num_nodes":"15","size_leaf_vector":"1"}},{"base_weights":[-2.7512115E-1,-2.6883483E0,4.015235E0,-5.833641E0,-1.0596944E0,2.5978723E0,6.759151E-2,-7.664729E-2,-4.6287972E-2,2.1300039E-3,-2.57347E-2,1.0435057E-2,3.5422564E-2],"categories":[],"categories_nodes":[],"categories_segments":[],"categories_sizes":[],"default_left":[0,0,0,0,0,0,0,0,0,0,0,0,0],"id":79,"left_children":[1,3,5,7,9,11,-1,-1,-1,-1,-1,-1,-1],"loss_changes":[1.1496907E3,3.5752228E2,1.3800562E2,1.7469727E1,9.302371E1,3.7405365E1,0E0,0E0,0E0,0E0,0E0,0E0,0E0],"parents":[2147483647,0,0,1,1,2,2,3,3,4,4,5,5],"right_children":[2,4,6,8,10,12,-1,-1,-1,-1,-1,-1,-1],"split_conditions":[5.9010624E1,4.472243E1,6.5E1,3.6105434E1,6.903868E1,5.8E1,6.759151E-2,-7.664729E-2,-4.6287972E-2,2.1300039E-3,-2.57347E-2,1.0435057E-2,3.5422564E-2],"split_indices":[0,0,1,0,3,1,0,0,0,0,0,0,0],"split_type":[0,0,0,0,0,0,0,0,0,0,0,0,0],"sum_hessian":[1.09E2,7E1,3.9E1,2.3E1,4.7E1,2.7E1,1.2E1,7E0,1.6E1,2.6E1,2.1E1,1.1E1,1.6E1],"tree_param":{"num_deleted":"0","num_feature":"4","num_nodes":"13","size_leaf_vector":"1"}},{"base_weights":[-1.3170351E-1,-2.0805023E0,4.256752E0,-5.2067227E0,-5.918909E-1,2.3627295E0,6.7508683E0,-6.872108E-2,-3.9208062E-2,-1.9139167E-2,8.989485E-3,1.069218E-2,3.559039E-2,8.3068065E-2,4.3510716E-2],"categories":[],"categories_nodes":[],"categories_segments":[],"categories_sizes":[],"default_left":[0,0,0,0,0,0,0,0,0,0,0,0,0,0,0],"id":80,"left_children":[1,3,5,7,9,11,13,-1,-1,-1,-1,-1,-1,-1,-1],"loss_changes":[1.0009133E3,3.7387015E2,1.5411041E2,2.8735962E1,1.1209249E2,3.0238289E1,1.9865479E1,0E0,0E0,0E0,0E0,0E0,0E0,0E0,0E0],"parents":[2147483647,0,0,1,1,2,2,3,3,4,4,5,5,6,6],"right_children":[2,4,6,8,10,12,14,-1,-1,-1,-1,-1,-1,-1,-1],"split_conditions":[6.012044E1,4.472243E1,6.5E1,3.6105434E1,5.37E1,6.2257362E1,6.96E1,-6.872108E-2,-3.9208062E-2,-1.9139167E-2,8.989485E-3,1.069218E-2,3.559039E-2,8.3068065E-2,4.3510716E-2],"split_indices":[0,0,1,0,1,3,1,0,0,0,0,0,0,0,0],"split_type":[0,0,0,0,0,0,0,0,0,0,0,0,0,0,0],"sum_hessian":[1.15E2,8E1,3.5E1,2.5E1,5.5E1,2.1E1,1.4E1,9E0,1.6E1,2.9E1,2.6E1,1.1E1,1E1,7E0,7E0],"tree_param":{"num_deleted":"0","num_feature":"4","num_nodes":"15","size_leaf_vector":"1"}},{"base_weights":[4.001447E-1,-2.3979375E0,4.3208528E0,-4.7309113E0,-9.521689E-1,2.9325943E0,7.383704E-2,-3.665585E-2,-6.2175363E-2,-7.7465584E-4,-2.6960423E-2,1.5064906E-2,4.6385597E-2],"categories":[],"categories_nodes":[],"categories_segments":[],"categories_sizes":[],"default_left":[0,0,0,0,0,0,0,0,0,0,0,0,0],"id":81,"left_children":[1,3,5,7,9,11,-1,-1,-1,-1,-1,-1,-1],"loss_changes":[1.239053E3,2.181094E2,1.7819202E2,1.6802551E1,6.3856762E1,7.57301E1,0E0,0E0,0E0,0E0,0E0,0E0,0E0],"parents":[2147483647,0,0,1,1,2,2,3,3,4,4,5,5],"right_children":[2,4,6,8,10,12,-1,-1,-1,-1,-1,-1,-1],"split_conditions":[5.83905E1,4.472243E1,2.6039272E1,8.001231E1,5.4954777E1,6.619784E1,7.383704E-2,-3.665585E-2,-6.2175363E-2,-7.7465584E-4,-2.6960423E-2,1.5064906E-2,4.6385597E-2],"split_indices":[0,0,2,3,0,0,0,0,0,0,0,0,0],"split_type":[0,0,0,0,0,0,0,0,0,0,0,0,0],"sum_hessian":[1.11E2,6.5E1,4.6E1,2.4E1,4.1E1,3.3E1,1.3E1,1.6E1,8E0,2.8E1,1.3E1,1.9E1,1.4E1],"tree_param":{"num_deleted":"0","num_feature":"4","num_nodes":"13","size_leaf_vector":"1"}},{"base_weights":[1.1089926E-1,-2.3355064E0,4.2438498E0,-5.3249326E0,-6.9569457E-1,3.2625809E0,8.006418E-2,-4.1248668E-2,-7.3594645E-2,1.1595128E-2,-2.3746576E-2,1.4149576E-2,4.0504515E-2],"categories":[],"categories_nodes":[],"categories_segments":[],"categories_sizes":[],"default_left":[0,0,0,0,0,0,0,0,0,0,0,0,0],"id":82,"left_children":[1,3,5,7,9,11,-1,-1,-1,-1,-1,-1,-1],"loss_changes":[1.1423293E3,3.4434436E2,1.2894623E2,3.0682495E1,1.4915022E2,4.5217896E1,0E0,0E0,0E0,0E0,0E0,0E0,0E0],"parents":[2147483647,0,0,1,1,2,2,3,3,4,4,5,5],"right_children":[2,4,6,8,10,12,-1,-1,-1,-1,-1,-1,-1],"split_conditions":[5.9010624E1,4.472243E1,7.562779E1,8.2755165E1,6.903868E1,5.8E1,8.006418E-2,-4.1248668E-2,-7.3594645E-2,1.1595128E-2,-2.3746576E-2,1.4149576E-2,4.0504515E-2],"split_indices":[0,0,0,3,3,1,0,0,0,0,0,0,0],"split_type":[0,0,0,0,0,0,0,0,0,0,0,0,0],"sum_hessian":[1.11E2,7E1,4.1E1,2.4E1,4.6E1,3.4E1,7E0,1.7E1,7E0,2.2E1,2.4E1,1.1E1,2.3E1],"tree_param":{"num_deleted":"0","num_feature":"4","num_nodes":"13","size_leaf_vector":"1"}},{"base_weights":[2.0152737E-1,-1.9169192E0,4.903589E0,-5.6505003E0,-5.782173E-1,2.6641626E0,7.5363607E0,-7.014274E-2,-4.271695E-2,-1.0004261E-2,2.291193E-2,1.0359195E-2,3.799018E-2,4.6045262E-2,9.892629E-2],"categories":[],"categories_nodes":[],"categories_segments":[],"categories_sizes":[],"default_left":[0,0,0,0,0,0,0,0,0,0,0,0,0,0,0],"id":83,"left_children":[1,3,5,7,9,11,13,-1,-1,-1,-1,-1,-1,-1,-1],"loss_changes":[1.1549224E3,3.9658496E2,1.9217426E2,9.525085E0,7.498158E1,3.486876E1,6.498016E1,0E0,0E0,0E0,0E0,0E0,0E0,0E0,0E0],"parents":[2147483647,0,0,1,1,2,2,3,3,4,4,5,5,6,6],"right_children":[2,4,6,8,10,12,14,-1,-1,-1,-1,-1,-1,-1,-1],"split_conditions":[6.012044E1,4.3887543E1,2.4530066E1,3.6105434E1,6.25E1,6.619784E1,6.653278E1,-7.014274E-2,-4.271695E-2,-1.0004261E-2,2.291193E-2,1.0359195E-2,3.799018E-2,4.6045262E-2,9.892629E-2],"split_indices":[0,0,2,0,1,0,0,0,0,0,0,0,0,0,0],"split_type":[0,0,0,0,0,0,0,0,0,0,0,0,0,0,0],"sum_hessian":[1.14E2,7.9E1,3.5E1,2E1,5.9E1,2E1,1.5E1,8E0,1.2E1,5.2E1,7E0,9E0,1.1E1,8E0,7E0],"tree_param":{"num_deleted":"0","num_feature":"4","num_nodes":"15","size_leaf_vector":"1"}},{"base_weights":[-1.8827038E-1,-2.317337E0,4.6665E0,-4.482009E0,-2.497972E-1,6.7165794E0,2.6906078E0,-6.7677274E-2,-3.494512E-2,-2.20235E-2,9.8883975E-3,3.8560454E-2,9.4526745E-2,1.2856202E-2,3.348246E-2],"categories":[],"categories_nodes":[],"categories_segments":[],"categories_sizes":[],"default_left":[0,0,0,0,0,0,0,0,0,0,0,0,0,0,0],"id":84,"left_children":[1,3,5,7,9,11,13,-1,-1,-1,-1,-1,-1,-1,-1],"loss_changes":[1.2201412E3,3.6587518E2,1.2775488E2,6.663574E1,1.06173454E2,9.660382E1,1.4174881E1,0E0,0E0,0E0,0E0,0E0,0E0,0E0,0E0],"parents":[2147483647,0,0,1,1,2,2,3,3,4,4,5,5,6,6],"right_children":[2,4,6,8,10,12,14,-1,-1,-1,-1,-1,-1,-1,-1],"split_conditions":[6.012044E1,4.8408306E1,6.0609715E1,3.6105434E1,5.15E1,7.098692E1,7.007843E1,-6.7677274E-2,-3.494512E-2,-2.20235E-2,9.8883975E-3,3.8560454E-2,9.4526745E-2,1.2856202E-2,3.348246E-2],"split_indices":[0,0,3,0,1,0,3,0,0,0,0,0,0,0,0],"split_type":[0,0,0,0,0,0,0,0,0,0,0,0,0,0,0],"sum_hessian":[1.16E2,8.1E1,3.5E1,3.9E1,4.2E1,1.6E1,1.9E1,1E1,2.9E1,1.6E1,2.6E1,9E0,7E0,7E0,1.2E1],"tree_param":{"num_deleted":"0","num_feature":"4","num_nodes":"15","size_leaf_vector":"1"}},{"base_weights":[-3.6590147E-1,-2.657422E0,3.1489954E0,-5.10958E0,-1.2519999E0,1.423017E0,4.887597E0,-6.938402E-2,-4.1225724E-2,7.806255E-4,-2.7589425E-2,-1.1609883E-2,2.4361236E-2,3.3166792E-2,7.137274E-2],"categories":[],"categories_nodes":[],"categories_segments":[],"categories_sizes":[],"default_left":[0,0,0,0,0,0,0,0,0,0,0,0,0,0,0],"id":85,"left_children":[1,3,5,7,9,11,13,-1,-1,-1,-1,-1,-1,-1,-1],"loss_changes":[9.9906665E2,2.5207666E2,1.4008356E2,2.0132568E1,9.8427444E1,7.0893005E1,6.1145325E1,0E0,0E0,0E0,0E0,0E0,0E0,0E0,0E0],"parents":[2147483647,0,0,1,1,2,2,3,3,4,4,5,5,6,6],"right_children":[2,4,6,8,10,12,14,-1,-1,-1,-1,-1,-1,-1,-1],"split_conditions":[5.83905E1,4.472243E1,6.512322E1,3.46E1,6.903868E1,5.72E1,6.83E1,-6.938402E-2,-4.1225724E-2,7.806255E-4,-2.7589425E-2,-1.1609883E-2,2.4361236E-2,3.3166792E-2,7.137274E-2],"split_indices":[0,0,0,1,3,1,1,0,0,0,0,0,0,0,0],"split_type":[0,0,0,0,0,0,0,0,0,0,0,0,0,0,0],"sum_hessian":[1.22E2,7.4E1,4.8E1,2.6E1,4.8E1,2.5E1,2.3E1,7E0,1.9E1,2.6E1,2.2E1,7E0,1.8E1,1.5E1,8E0],"tree_param":{"num_deleted":"0","num_feature":"4","num_nodes":"15","size_leaf_vector":"1"}},{"base_weights":[-1.032323E-2,-2.6950736E0,3.8950028E0,-2.4268913E-1,-3.8871057E0,2.1714864E0,6.2638884E0,-1.663016E-2,1.328821E-2,-4.812937E-2,-2.0239573E-2,9.620406E-3,4.1313402E-2,3.7196755E-2,8.394803E-2],"categories":[],"categories_nodes":[],"categories_segments":[],"categories_sizes":[],"default_left":[0,0,0,0,0,0,0,0,0,0,0,0,0,0,0],"id":86,"left_children":[1,3,5,7,9,11,13,-1,-1,-1,-1,-1,-1,-1,-1],"loss_changes":[1.1323737E3,1.8614926E2,1.6604181E2,5.131513E1,6.443207E1,6.0024582E1,6.6361084E1,0E0,0E0,0E0,0E0,0E0,0E0,0E0,0E0],"parents":[2147483647,0,0,1,1,2,2,3,3,4,4,5,5,6,6],"right_children":[2,4,6,8,10,12,14,-1,-1,-1,-1,-1,-1,-1,-1],"split_conditions":[5.83905E1,6.903868E1,6.694645E1,6.2681103E1,4.782163E1,2.6039272E1,2.3262959E1,-1.663016E-2,1.328821E-2,-4.812937E-2,-2.0239573E-2,9.620406E-3,4.1313402E-2,3.7196755E-2,8.394803E-2],"split_indices":[0,3,0,3,0,2,2,0,0,0,0,0,0,0,0],"split_type":[0,0,0,0,0,0,0,0,0,0,0,0,0,0,0],"sum_hessian":[1.06E2,6.3E1,4.3E1,2.1E1,4.2E1,2.6E1,1.7E1,1.1E1,1E1,2.7E1,1.5E1,1.7E1,9E0,9E0,8E0],"tree_param":{"num_deleted":"0","num_feature":"4","num_nodes":"15","size_leaf_vector":"1"}},{"base_weights":[1.0288992E-1,-4.63366E0,1.8579826E0,-6.6771924E-2,-3.4548545E0,1.0814548E0,6.314495E-2,-1.391663E-2,-4.270522E-2,1.9020613E-2,-6.01353E-3],"categories":[],"categories_nodes":[],"categories_segments":[],"categories_sizes":[],"default_left":[0,0,0,0,0,0,0,0,0,0,0],"id":87,"left_children":[1,3,5,-1,7,9,-1,-1,-1,-1,-1],"loss_changes":[1.0144924E3,5.6425903E1,3.011652E2,0E0,3.276303E1,1.074749E2,0E0,0E0,0E0,0E0,0E0],"parents":[2147483647,0,0,1,1,2,2,4,4,5,5],"right_children":[2,4,6,-1,8,10,-1,-1,-1,-1,-1],"split_conditions":[4.7245125E1,3.7764927E1,6.83E1,-6.6771924E-2,7.053663E1,7.4103714E1,6.314495E-2,-1.391663E-2,-4.270522E-2,1.9020613E-2,-6.01353E-3],"split_indices":[0,0,1,0,3,3,0,0,0,0,0],"split_type":[0,0,0,0,0,0,0,0,0,0,0],"sum_hessian":[1.2E2,3.2E1,8.8E1,1E1,2.2E1,7.6E1,1.2E1,7E0,1.5E1,5.1E1,2.5E1],"tree_param":{"num_deleted":"0","num_feature":"4","num_nodes":"11","size_leaf_vector":"1"}},{"base_weights":[4.5390415E-1,-1.1463494E0,5.459738E0,-4.77555E0,2.249396E-1,3.2492008E-2,7.052724E0,-5.379834E-2,-3.1035079E-2,-2.5767102E-3,3.0015873E-2,4.2033672E-2,9.376659E-2],"categories":[],"categories_nodes":[],"categories_segments":[],"categories_sizes":[],"default_left":[0,0,0,0,0,0,0,0,0,0,0,0,0],"id":88,"left_children":[1,3,5,7,9,-1,11,-1,-1,-1,-1,-1,-1],"loss_changes":[9.595205E2,4.539524E2,7.920355E1,8.5633545E0,9.055608E1,0E0,6.653406E1,0E0,0E0,0E0,0E0,0E0,0E0],"parents":[2147483647,0,0,1,1,2,2,3,3,4,4,6,6],"right_children":[2,4,6,8,10,-1,12,-1,-1,-1,-1,-1,-1],"split_conditions":[6.3937824E1,4.472243E1,6.5E1,4.57E1,2.562192E1,3.2492008E-2,2.4480864E1,-5.379834E-2,-3.1035079E-2,-2.5767102E-3,3.0015873E-2,4.2033672E-2,9.376659E-2],"split_indices":[0,0,1,1,2,0,2,0,0,0,0,0,0],"split_type":[0,0,0,0,0,0,0,0,0,0,0,0,0],"sum_hessian":[1.18E2,9E1,2.8E1,2.4E1,6.6E1,1.3E1,1.5E1,1.6E1,8E0,5.7E1,9E0,8E0,7E0],"tree_param":{"num_deleted":"0","num_feature":"4","num_nodes":"13","size_leaf_vector":"1"}},{"base_weights":[-1.02055185E-1,-2.2058759E0,3.4923227E0,-5.174228E0,-1.0788648E0,1.7650164E0,6.0809255E-2,-6.7690596E-2,-3.6798216E-2,2.4040248E-3,-2.5132895E-2,2.6753787E-2,4.0898897E-4],"categories":[],"categories_nodes":[],"categories_segments":[],"categories_sizes":[],"default_left":[0,0,0,0,0,0,0,0,0,0,0,0,0],"id":89,"left_children":[1,3,5,7,9,11,-1,-1,-1,-1,-1,-1,-1],"loss_changes":[8.3951556E2,2.2859335E2,1.7259076E2,2.0374237E1,9.900845E1,4.0699448E1,0E0,0E0,0E0,0E0,0E0,0E0,0E0],"parents":[2147483647,0,0,1,1,2,2,3,3,4,4,5,5],"right_children":[2,4,6,8,10,12,-1,-1,-1,-1,-1,-1,-1],"split_conditions":[5.86E1,4.277239E1,2.4234032E1,3.58E1,6.903868E1,2.1929434E1,6.0809255E-2,-6.7690596E-2,-3.6798216E-2,2.4040248E-3,-2.5132895E-2,2.6753787E-2,4.0898897E-4],"split_indices":[1,0,2,1,3,2,0,0,0,0,0,0,0],"split_type":[0,0,0,0,0,0,0,0,0,0,0,0,0],"sum_hessian":[1.09E2,6.9E1,4E1,1.8E1,5.1E1,2.5E1,1.5E1,7E0,1.1E1,2.7E1,2.4E1,1.6E1,9E0],"tree_param":{"num_deleted":"0","num_feature":"4","num_nodes":"13","size_leaf_vector":"1"}},{"base_weights":[-1.9442838E-1,-2.4803114E0,3.6907785E0,-5.274943E0,-1.0038604E0,1.1296681E0,5.321902E0,-6.790624E-2,-4.1622333E-2,-1.9047443E-2,1.3924758E-4,2.693683E-2,-7.336447E-3,2.5376933E-2,7.194475E-2],"categories":[],"categories_nodes":[],"categories_segments":[],"categories_sizes":[],"default_left":[0,0,0,0,0,0,0,0,0,0,0,0,0,0,0],"id":90,"left_children":[1,3,5,7,9,11,13,-1,-1,-1,-1,-1,-1,-1,-1],"loss_changes":[1.030484E3,2.9591266E2,